{"learner":{"attributes":{"best_iteration":"99","best_score":"0.01551030358496064","scikit_learn":"{\"_estimator_type\": \"classifier\"}"},"feature_names":["Adj Close","Volume","Daily Return","ATR","BBW","OBV","CMF","MACD","ADX","SMA","EMA","CCI","RSI","Inflation, GDP deflator (annual %)","GDP per capita growth (annual %)","Unemployment, total (% of total labor force) (national estimate)","Adjusted net national income per capita (current US$)"],"feature_types":["float","int","float","float","float","int","float","float","float","float","float","float","float","float","float","float","float"],"gradient_booster":{"model":{"gbtree_model_param":{"num_parallel_tree":"1","num_trees":"100"},"iteration_indptr":[0,1,2,3,4,5,6,7,8,9,10,11,12,13,14,15,16,17,18,19,20,21,22,23,24,25,26,27,28,29,30,31,32,33,34,35,36,37,38,39,40,41,42,43,44,45,46,47,48,49,50,51,52,53,54,55,56,57,58,59,60,61,62,63,64,65,66,67,68,69,70,71,72,73,74,75,76,77,78,79,80,81,82,83,84,85,86,87,88,89,90,91,92,93,94,95,96,97,98,99,100],"tree_info":[0,0,0,0,0,0,0,0,0,0,0,0,0,0,0,0,0,0,0,0,0,0,0,0,0,0,0,0,0,0,0,0,0,0,0,0,0,0,0,0,0,0,0,0,0,0,0,0,0,0,0,0,0,0,0,0,0,0,0,0,0,0,0,0,0,0,0,0,0,0,0,0,0,0,0,0,0,0,0,0,0,0,0,0,0,0,0,0,0,0,0,0,0,0,0,0,0,0,0,0],"trees":[{"base_weights":[-8.805286E-1,-5.7558086E-2,3.538942E-1],"categories":[],"categories_nodes":[],"categories_segments":[],"categories_sizes":[],"default_left":[0,0,0],"id":0,"left_children":[1,-1,-1],"loss_changes":[1.1220298E3,0E0,0E0],"parents":[2147483647,0,0],"right_children":[2,-1,-1],"split_conditions":[3.6933124E0,-5.7558086E-2,3.538942E-1],"split_indices":[2,0,0],"split_type":[0,0,0],"sum_hessian":[5.161683E2,5.0001996E2,1.6148281E1],"tree_param":{"num_deleted":"0","num_feature":"17","num_nodes":"3","size_leaf_vector":"1"}},{"base_weights":[-8.4477127E-1,-5.7124574E-2,2.6670414E-1],"categories":[],"categories_nodes":[],"categories_segments":[],"categories_sizes":[],"default_left":[0,0,0],"id":1,"left_children":[1,-1,-1],"loss_changes":[9.2864355E2,0E0,0E0],"parents":[2147483647,0,0],"right_children":[2,-1,-1],"split_conditions":[3.6933124E0,-5.7124574E-2,2.6670414E-1],"split_indices":[2,0,0],"split_type":[0,0,0],"sum_hessian":[5.005029E2,4.7827304E2,2.2229881E1],"tree_param":{"num_deleted":"0","num_feature":"17","num_nodes":"3","size_leaf_vector":"1"}},{"base_weights":[-8.475214E-1,-8.8942707E-1,3.946097E-1,-7.412349E-1,-1.0011762E0,7.323465E-2,7.263583E-2,2.363285E-2,-3.872638E-2,-4.349613E-2,-5.2125286E-2,2.6500328E-2,-1.2035894E-2],"categories":[],"categories_nodes":[],"categories_segments":[],"categories_sizes":[],"default_left":[0,0,0,0,0,0,0,0,0,0,0,0,0],"id":2,"left_children":[1,3,5,7,9,11,-1,-1,-1,-1,-1,-1,-1],"loss_changes":[2.5798248E1,7.0947876E0,5.5546393E0,8.743629E0,5.411377E-1,2.1097772E0,0E0,0E0,0E0,0E0,0E0,0E0,0E0],"parents":[2147483647,0,0,1,1,2,2,3,3,4,4,5,5],"right_children":[2,4,6,8,10,12,-1,-1,-1,-1,-1,-1,-1],"split_conditions":[2.1266814E2,8.802667E3,2.9426483E2,6.7258705E1,-3.85631E1,8.802667E3,7.263583E-2,2.363285E-2,-3.872638E-2,-4.349613E-2,-5.2125286E-2,2.6500328E-2,-1.2035894E-2],"split_indices":[11,16,11,10,11,16,0,0,0,0,0,0,0],"split_type":[0,0,0,0,0,0,0,0,0,0,0,0,0],"sum_hessian":[4.8787936E2,4.722317E2,1.56476755E1,2.062946E2,2.6593707E2,1.282239E1,2.825286E0,5.154596E0,2.0114E2,6.8965454E1,1.9697162E2,4.9428406E0,7.8795495E0],"tree_param":{"num_deleted":"0","num_feature":"17","num_nodes":"13","size_leaf_vector":"1"}},{"base_weights":[-8.227082E-1,-9.207684E-1,-9.682163E-2,-5.4843098E-2,-7.4820894E-1,-4.9241507E-1,5.0721306E-1,-3.917987E-2,1.8752726E-2,-4.4501718E-2,2.089501E-2,5.348764E-2,7.345681E-3],"categories":[],"categories_nodes":[],"categories_segments":[],"categories_sizes":[],"default_left":[0,0,0,0,0,0,0,0,0,0,0,0,0],"id":3,"left_children":[1,3,5,-1,7,9,11,-1,-1,-1,-1,-1,-1],"loss_changes":[3.3705658E1,1.1885559E1,1.401863E1,0E0,8.814102E0,1.3158491E1,4.564518E0,0E0,0E0,0E0,0E0,0E0,0E0],"parents":[2147483647,0,0,1,1,2,2,4,4,5,5,6,6],"right_children":[2,4,6,-1,8,10,12,-1,-1,-1,-1,-1,-1],"split_conditions":[1.15664E8,4.22538E7,8.6759636E1,-5.4843098E-2,2.0148549E2,1.82788E8,-5.88107E-1,-3.917987E-2,1.8752726E-2,-4.4501718E-2,2.089501E-2,5.348764E-2,7.345681E-3],"split_indices":[1,1,0,0,0,1,7,0,0,0,0,0,0],"split_type":[0,0,0,0,0,0,0,0,0,0,0,0,0],"sum_hessian":[4.737754E2,4.171535E2,5.662187E1,2.0381145E2,2.1334207E2,3.432596E1,2.229591E1,2.0711917E2,6.2228994E0,2.3906183E1,1.0419774E1,7.936108E0,1.4359802E1],"tree_param":{"num_deleted":"0","num_feature":"17","num_nodes":"13","size_leaf_vector":"1"}},{"base_weights":[-8.149102E-1,-8.5266036E-1,6.533873E-1,-9.139982E-1,-6.2106985E-1,1.4190996E0,-4.3082304E-2,-4.7791857E-2,-3.2773267E-2,-3.0754714E-3,-3.333339E-2,2.4442893E-2,9.0682074E-2,3.02252E-2,-3.202319E-2],"categories":[],"categories_nodes":[],"categories_segments":[],"categories_sizes":[],"default_left":[0,0,0,0,0,0,0,0,0,0,0,0,0,0,0],"id":4,"left_children":[1,3,5,7,9,11,13,-1,-1,-1,-1,-1,-1,-1,-1],"loss_changes":[2.5964905E1,5.7867737E0,6.49054E0,3.1760254E0,2.428566E0,1.231822E0,3.2050185E0,0E0,0E0,0E0,0E0,0E0,0E0,0E0,0E0],"parents":[2147483647,0,0,1,1,2,2,3,3,4,4,5,5,6,6],"right_children":[2,4,6,8,10,12,14,-1,-1,-1,-1,-1,-1,-1,-1],"split_conditions":[2.2467696E2,1.4608097E10,2.4045608E0,7.260642E0,1.5894883E10,1.023028E10,5.7937084E1,-4.7791857E-2,-3.2773267E-2,-3.0754714E-3,-3.333339E-2,2.4442893E-2,9.0682074E-2,3.02252E-2,-3.202319E-2],"split_indices":[11,5,13,13,5,5,9,0,0,0,0,0,0,0,0],"split_type":[0,0,0,0,0,0,0,0,0,0,0,0,0,0,0],"sum_hessian":[4.5738797E2,4.4633197E2,1.1055988E1,3.5054257E2,9.5789406E1,4.7719984E0,6.28399E0,2.9939383E2,5.114875E1,7.394617E0,8.839478E1,2.0880032E0,2.6839952E0,3.0095694E0,3.2744205E0],"tree_param":{"num_deleted":"0","num_feature":"17","num_nodes":"15","size_leaf_vector":"1"}},{"base_weights":[-7.949751E-1,-8.9751416E-1,-2.7958762E-2,-5.4089654E-2,-7.207497E-1,-2.3522429E-1,1.6547256E0,-5.2604504E-2,-2.6366523E-2,-3.4636203E-2,1.2706377E-2,1.5174361E-2,9.5588475E-2],"categories":[],"categories_nodes":[],"categories_segments":[],"categories_sizes":[],"default_left":[0,0,0,0,0,0,0,0,0,0,0,0,0],"id":5,"left_children":[1,3,5,-1,7,9,11,-1,-1,-1,-1,-1,-1],"loss_changes":[3.487729E1,1.1970062E1,1.9000034E1,0E0,1.2440552E1,1.1008581E1,1.4956303E0,0E0,0E0,0E0,0E0,0E0,0E0],"parents":[2147483647,0,0,1,1,2,2,4,4,5,5,6,6],"right_children":[2,4,6,-1,8,10,12,-1,-1,-1,-1,-1,-1],"split_conditions":[1.174736E8,4.22538E7,1.9238928E2,-5.4089654E-2,7.076602E9,5.1908946E9,1.317476E8,-5.2604504E-2,-2.6366523E-2,-3.4636203E-2,1.2706377E-2,1.5174361E-2,9.5588475E-2],"split_indices":[1,1,11,0,5,5,1,0,0,0,0,0,0],"split_type":[0,0,0,0,0,0,0,0,0,0,0,0,0],"sum_hessian":[4.4277298E2,3.9041058E2,5.2362404E1,1.8863571E2,2.0177486E2,4.7385838E1,4.9765673E0,7.2735146E1,1.2903972E2,2.4275162E1,2.3110678E1,1.1439084E0,3.8326588E0],"tree_param":{"num_deleted":"0","num_feature":"17","num_nodes":"13","size_leaf_vector":"1"}},{"base_weights":[-8.0292714E-1,-4.0024683E-1,-8.613311E-1,-6.368129E-1,3.5679233E-1,-9.002714E-1,-6.4121515E-1,-2.2603028E-2,-4.850719E-2,-1.860214E-2,5.724904E-2,-3.646532E-2,-4.816473E-2,-3.4903813E-2,1.0336804E-2],"categories":[],"categories_nodes":[],"categories_segments":[],"categories_sizes":[],"default_left":[0,0,0,0,0,0,0,0,0,0,0,0,0,0,0],"id":6,"left_children":[1,3,5,7,9,11,13,-1,-1,-1,-1,-1,-1,-1,-1],"loss_changes":[9.700745E0,1.0251266E1,2.6127014E0,2.2098408E0,8.449608E0,2.6780243E0,3.0091686E0,0E0,0E0,0E0,0E0,0E0,0E0,0E0,0E0],"parents":[2147483647,0,0,1,1,2,2,3,3,4,4,5,5,6,6],"right_children":[2,4,6,8,10,12,14,-1,-1,-1,-1,-1,-1,-1,-1],"split_conditions":[-2.1918538E0,5.8560343E0,6.676999E0,2.236516E-2,3.3087658E1,5.577162E0,2.2466762E-1,-2.2603028E-2,-4.850719E-2,-1.860214E-2,5.724904E-2,-3.646532E-2,-4.816473E-2,-3.4903813E-2,1.0336804E-2],"split_indices":[7,15,15,6,8,15,6,0,0,0,0,0,0,0,0],"split_type":[0,0,0,0,0,0,0,0,0,0,0,0,0,0,0],"sum_hessian":[4.2613818E2,5.497223E1,3.7116595E2,4.2004967E1,1.2967262E1,3.127483E2,5.8417683E1,2.8541636E1,1.3463331E1,7.0116196E0,5.9556427E0,8.762285E1,2.2512543E2,5.491218E1,3.5055027E0],"tree_param":{"num_deleted":"0","num_feature":"17","num_nodes":"15","size_leaf_vector":"1"}},{"base_weights":[-7.732838E-1,-5.541856E-2,2.3431015E-1],"categories":[],"categories_nodes":[],"categories_segments":[],"categories_sizes":[],"default_left":[0,0,0],"id":7,"left_children":[1,-1,-1],"loss_changes":[7.7727527E2,0E0,0E0],"parents":[2147483647,0,0],"right_children":[2,-1,-1],"split_conditions":[3.6933124E0,-5.541856E-2,2.3431015E-1],"split_indices":[2,0,0],"split_type":[0,0,0],"sum_hessian":[4.2103955E2,3.9744266E2,2.359689E1],"tree_param":{"num_deleted":"0","num_feature":"17","num_nodes":"3","size_leaf_vector":"1"}},{"base_weights":[-7.534821E-1,-5.511407E-2,1.9496837E-1],"categories":[],"categories_nodes":[],"categories_segments":[],"categories_sizes":[],"default_left":[0,0,0],"id":8,"left_children":[1,-1,-1],"loss_changes":[6.589652E2,0E0,0E0],"parents":[2147483647,0,0],"right_children":[2,-1,-1],"split_conditions":[3.6933124E0,-5.511407E-2,1.9496837E-1],"split_indices":[2,0,0],"split_type":[0,0,0],"sum_hessian":[4.0239062E2,3.7503903E2,2.7351585E1],"tree_param":{"num_deleted":"0","num_feature":"17","num_nodes":"3","size_leaf_vector":"1"}},{"base_weights":[-7.80146E-1,-5.4827776E-2,1.6979735E-1],"categories":[],"categories_nodes":[],"categories_segments":[],"categories_sizes":[],"default_left":[0,0,0],"id":9,"left_children":[1,-1,-1],"loss_changes":[5.1700446E2,0E0,0E0],"parents":[2147483647,0,0],"right_children":[2,-1,-1],"split_conditions":[3.6933124E0,-5.4827776E-2,1.6979735E-1],"split_indices":[2,0,0],"split_type":[0,0,0],"sum_hessian":[3.8745016E2,3.6084732E2,2.6602846E1],"tree_param":{"num_deleted":"0","num_feature":"17","num_nodes":"3","size_leaf_vector":"1"}},{"base_weights":[-7.426646E-1,-5.4551303E-2,1.5173599E-1],"categories":[],"categories_nodes":[],"categories_segments":[],"categories_sizes":[],"default_left":[0,0,0],"id":10,"left_children":[1,-1,-1],"loss_changes":[4.917E2,0E0,0E0],"parents":[2147483647,0,0],"right_children":[2,-1,-1],"split_conditions":[3.6933124E0,-5.4551303E-2,1.5173599E-1],"split_indices":[2,0,0],"split_type":[0,0,0],"sum_hessian":[3.7014587E2,3.3954337E2,3.0602518E1],"tree_param":{"num_deleted":"0","num_feature":"17","num_nodes":"3","size_leaf_vector":"1"}},{"base_weights":[-7.5332475E-1,-5.4295238E-2,1.3684586E-1],"categories":[],"categories_nodes":[],"categories_segments":[],"categories_sizes":[],"default_left":[0,0,0],"id":11,"left_children":[1,-1,-1],"loss_changes":[4.1758105E2,0E0,0E0],"parents":[2147483647,0,0],"right_children":[2,-1,-1],"split_conditions":[3.6933124E0,-5.4295238E-2,1.3684586E-1],"split_indices":[2,0,0],"split_type":[0,0,0],"sum_hessian":[3.5617993E2,3.2582172E2,3.0358202E1],"tree_param":{"num_deleted":"0","num_feature":"17","num_nodes":"3","size_leaf_vector":"1"}},{"base_weights":[-7.1841097E-1,-5.405108E-2,1.2572622E-1],"categories":[],"categories_nodes":[],"categories_segments":[],"categories_sizes":[],"default_left":[0,0,0],"id":12,"left_children":[1,-1,-1],"loss_changes":[4.0975708E2,0E0,0E0],"parents":[2147483647,0,0],"right_children":[2,-1,-1],"split_conditions":[3.6933124E0,-5.405108E-2,1.2572622E-1],"split_indices":[2,0,0],"split_type":[0,0,0],"sum_hessian":[3.462149E2,3.1189764E2,3.4317253E1],"tree_param":{"num_deleted":"0","num_feature":"17","num_nodes":"3","size_leaf_vector":"1"}},{"base_weights":[-7.485984E-1,-5.382529E-2,1.16430186E-1],"categories":[],"categories_nodes":[],"categories_segments":[],"categories_sizes":[],"default_left":[0,0,0],"id":13,"left_children":[1,-1,-1],"loss_changes":[3.3752264E2,0E0,0E0],"parents":[2147483647,0,0],"right_children":[2,-1,-1],"split_conditions":[3.6933124E0,-5.382529E-2,1.16430186E-1],"split_indices":[2,0,0],"split_type":[0,0,0],"sum_hessian":[3.3101538E2,2.997266E2,3.1288767E1],"tree_param":{"num_deleted":"0","num_feature":"17","num_nodes":"3","size_leaf_vector":"1"}},{"base_weights":[-7.039119E-1,-5.3607788E-2,1.09792136E-1],"categories":[],"categories_nodes":[],"categories_segments":[],"categories_sizes":[],"default_left":[0,0,0],"id":14,"left_children":[1,-1,-1],"loss_changes":[3.4706204E2,0E0,0E0],"parents":[2147483647,0,0],"right_children":[2,-1,-1],"split_conditions":[3.6933124E0,-5.3607788E-2,1.09792136E-1],"split_indices":[2,0,0],"split_type":[0,0,0],"sum_hessian":[3.218154E2,2.861119E2,3.570349E1],"tree_param":{"num_deleted":"0","num_feature":"17","num_nodes":"3","size_leaf_vector":"1"}},{"base_weights":[-7.185407E-1,-5.3401995E-2,1.03357114E-1],"categories":[],"categories_nodes":[],"categories_segments":[],"categories_sizes":[],"default_left":[0,0,0],"id":15,"left_children":[1,-1,-1],"loss_changes":[3.0095084E2,0E0,0E0],"parents":[2147483647,0,0],"right_children":[2,-1,-1],"split_conditions":[3.6933124E0,-5.3401995E-2,1.03357114E-1],"split_indices":[2,0,0],"split_type":[0,0,0],"sum_hessian":[3.058456E2,2.7229886E2,3.354674E1],"tree_param":{"num_deleted":"0","num_feature":"17","num_nodes":"3","size_leaf_vector":"1"}},{"base_weights":[-6.9218373E-1,-5.113704E-2,-4.7523564E-1,-5.6657857E-1,1.8840623E-1,-4.8477825E-2,-2.4110949E-2,-3.3206027E-2,1.8825417E-2],"categories":[],"categories_nodes":[],"categories_segments":[],"categories_sizes":[],"default_left":[0,0,0,0,0,0,0,0,0],"id":16,"left_children":[1,-1,3,5,7,-1,-1,-1,-1],"loss_changes":[2.0783127E1,0E0,1.1074612E1,4.9475517E0,3.8807511E0,0E0,0E0,0E0,0E0],"parents":[2147483647,0,0,2,2,3,3,4,4],"right_children":[2,-1,4,6,8,-1,-1,-1,-1],"split_conditions":[4.22538E7,-5.113704E-2,1.558E8,5.1574917E1,3.6122505E1,-4.8477825E-2,-2.4110949E-2,-3.3206027E-2,1.8825417E-2],"split_indices":[1,0,1,10,12,0,0,0,0],"split_type":[0,0,0,0,0,0,0,0,0],"sum_hessian":[2.955843E2,1.1565306E2,1.7993121E2,1.5829054E2,2.1640669E1,2.5584183E1,1.3270636E2,3.454293E0,1.8186377E1],"tree_param":{"num_deleted":"0","num_feature":"17","num_nodes":"9","size_leaf_vector":"1"}},{"base_weights":[-6.7985785E-1,-5.3076893E-2,9.886619E-2],"categories":[],"categories_nodes":[],"categories_segments":[],"categories_sizes":[],"default_left":[0,0,0],"id":17,"left_children":[1,-1,-1],"loss_changes":[2.92971E2,0E0,0E0],"parents":[2147483647,0,0],"right_children":[2,-1,-1],"split_conditions":[3.6933124E0,-5.3076893E-2,9.886619E-2],"split_indices":[2,0,0],"split_type":[0,0,0],"sum_hessian":[2.8580145E2,2.5042998E2,3.5371487E1],"tree_param":{"num_deleted":"0","num_feature":"17","num_nodes":"3","size_leaf_vector":"1"}},{"base_weights":[-7.016697E-1,-7.8116566E-1,-6.859248E-2,-9.6711046E-1,-6.349103E-1,2.3295443E-1,-3.348824E-1,-4.8667673E-2,-9.676608E-3,-3.7383135E-2,-2.207621E-2,-3.4664698E-2,2.0582335E-2,-4.003551E-2,-1.1009655E-3],"categories":[],"categories_nodes":[],"categories_segments":[],"categories_sizes":[],"default_left":[0,0,0,0,0,0,0,0,0,0,0,0,0,0,0],"id":18,"left_children":[1,3,5,7,9,11,13,-1,-1,-1,-1,-1,-1,-1,-1],"loss_changes":[1.38411255E1,6.054062E0,2.639322E0,3.2373047E-1,2.7259064E0,2.8588114E0,2.5108318E0,0E0,0E0,0E0,0E0,0E0,0E0,0E0,0E0],"parents":[2147483647,0,0,1,1,2,2,3,3,4,4,5,5,6,6],"right_children":[2,4,6,8,10,12,14,-1,-1,-1,-1,-1,-1,-1,-1],"split_conditions":[-2.4871423E0,-5.5453477E0,-2.2475855E0,5.9683523E0,3.8586621E0,-1.674318E1,3.0821793E0,-4.8667673E-2,-9.676608E-3,-3.7383135E-2,-2.207621E-2,-3.4664698E-2,2.0582335E-2,-4.003551E-2,-1.1009655E-3],"split_indices":[4,4,7,7,3,7,3,0,0,0,0,0,0,0,0],"split_type":[0,0,0,0,0,0,0,0,0,0,0,0,0,0,0],"sum_hessian":[2.7508835E2,2.4419116E2,3.0897194E1,1.0503733E2,1.3915382E2,1.45481E1,1.6349092E1,1.03940254E2,1.0970755E0,8.609222E1,5.306161E1,1.8870077E0,1.2661093E1,5.942257E0,1.0406836E1],"tree_param":{"num_deleted":"0","num_feature":"17","num_nodes":"15","size_leaf_vector":"1"}},{"base_weights":[-6.521623E-1,-7.083103E-1,3.1852865E-1,-3.6403984E-1,-8.581006E-1,6.859791E-1,3.2107618E-2,-1.2522605E-2,-3.586546E-2,-4.5717314E-2,-3.1178007E-2,4.1607063E-2,1.1878069E-2,-9.999755E-3,3.8200106E-2],"categories":[],"categories_nodes":[],"categories_segments":[],"categories_sizes":[],"default_left":[0,0,0,0,0,0,0,0,0,0,0,0,0,0,0],"id":19,"left_children":[1,3,5,7,9,11,13,-1,-1,-1,-1,-1,-1,-1,-1],"loss_changes":[1.4905037E1,1.2833328E1,1.6005635E0,2.9913244E0,1.7634277E0,2.4172091E-1,1.8027822E0,0E0,0E0,0E0,0E0,0E0,0E0,0E0,0E0],"parents":[2147483647,0,0,1,1,2,2,3,3,4,4,5,5,6,6],"right_children":[2,4,6,8,10,12,14,-1,-1,-1,-1,-1,-1,-1,-1],"split_conditions":[1.9951343E2,-5.88107E-1,2.4045608E0,1.5991417E2,1.2948843E2,1.2359417E2,2.9426483E2,-1.2522605E-2,-3.586546E-2,-4.5717314E-2,-3.1178007E-2,4.1607063E-2,1.1878069E-2,-9.999755E-3,3.8200106E-2],"split_indices":[11,7,13,9,11,9,11,0,0,0,0,0,0,0,0],"split_type":[0,0,0,0,0,0,0,0,0,0,0,0,0,0,0],"sum_hessian":[2.6833527E2,2.5391809E2,1.4417171E1,7.8023384E1,1.7589471E2,5.704214E0,8.712956E0,6.033322E1,1.7690163E1,1.3953424E2,3.636047E1,3.656611E0,2.0476031E0,7.1668925E0,1.5460641E0],"tree_param":{"num_deleted":"0","num_feature":"17","num_nodes":"15","size_leaf_vector":"1"}},{"base_weights":[-6.5100235E-1,-4.7949103E-1,-7.9576117E-1,-2.0841835E-1,-6.3851714E-1,-5.0870913E-1,-8.525427E-1,2.170947E-2,-1.3616459E-2,-3.4366485E-2,-1.5156676E-2,-3.2287676E-2,7.661745E-3,-4.3984E-2,-3.2134227E-2],"categories":[],"categories_nodes":[],"categories_segments":[],"categories_sizes":[],"default_left":[0,0,0,0,0,0,0,0,0,0,0,0,0,0,0],"id":20,"left_children":[1,3,5,7,9,11,13,-1,-1,-1,-1,-1,-1,-1,-1],"loss_changes":[6.1140594E0,5.137451E0,1.8541183E0,2.0358238E0,1.0452213E0,2.426661E0,9.3574524E-2,0E0,0E0,0E0,0E0,0E0,0E0,0E0,0E0],"parents":[2147483647,0,0,1,1,2,2,3,3,4,4,5,5,6,6],"right_children":[2,4,6,8,10,12,14,-1,-1,-1,-1,-1,-1,-1,-1],"split_conditions":[8.802667E3,1.1818654E2,-7.0852615E-2,6.5279335E1,3.6304546E1,3.3087658E1,3.8586113E1,2.170947E-2,-1.3616459E-2,-3.4366485E-2,-1.5156676E-2,-3.2287676E-2,7.661745E-3,-4.3984E-2,-3.2134227E-2],"split_indices":[16,9,6,9,8,8,8,0,0,0,0,0,0,0,0],"split_type":[0,0,0,0,0,0,0,0,0,0,0,0,0,0,0],"sum_hessian":[2.6062714E2,1.2126444E2,1.393627E2,4.5691032E1,7.557341E1,2.4659374E1,1.1470332E2,3.6090677E0,4.2081966E1,6.505567E1,1.0517743E1,2.0450005E1,4.20937E0,9.874286E1,1.5960464E1],"tree_param":{"num_deleted":"0","num_feature":"17","num_nodes":"15","size_leaf_vector":"1"}},{"base_weights":[-6.1968994E-1,-5.1288623E-2,-3.7052843E-1,-4.6462405E-1,2.8977776E-1,-1.2099662E-2,-3.3528637E-2,-2.8740292E-2,2.2586517E-2],"categories":[],"categories_nodes":[],"categories_segments":[],"categories_sizes":[],"default_left":[0,0,0,0,0,0,0,0,0],"id":21,"left_children":[1,-1,3,5,7,-1,-1,-1,-1],"loss_changes":[2.5322495E1,0E0,1.0013447E1,6.2361603E0,3.1227384E0,0E0,0E0,0E0,0E0],"parents":[2147483647,0,0,2,2,3,3,4,4],"right_children":[2,-1,4,6,8,-1,-1,-1,-1],"split_conditions":[4.22538E7,-5.1288623E-2,1.558E8,8.802667E3,3.6122505E1,-1.2099662E-2,-3.3528637E-2,-2.8740292E-2,2.2586517E-2],"split_indices":[1,0,1,16,12,0,0,0,0],"split_type":[0,0,0,0,0,0,0,0,0],"sum_hessian":[2.5302786E2,9.503053E1,1.5799733E2,1.385499E2,1.944743E1,6.762365E1,7.092625E1,2.665964E0,1.6781466E1],"tree_param":{"num_deleted":"0","num_feature":"17","num_nodes":"9","size_leaf_vector":"1"}},{"base_weights":[-6.1844534E-1,-6.902096E-1,2.4638814E-1,-8.474069E-1,-3.7278375E-1,-4.3477264E-1,8.360101E-1,-4.3090668E-2,2.9179458E-2,-3.5169292E-2,-9.556031E-3,-2.97288E-2,2.142622E-2,6.401202E-2,1.238777E-2],"categories":[],"categories_nodes":[],"categories_segments":[],"categories_sizes":[],"default_left":[0,0,0,0,0,0,0,0,0,0,0,0,0,0,0],"id":22,"left_children":[1,3,5,7,9,11,13,-1,-1,-1,-1,-1,-1,-1,-1],"loss_changes":[1.5494751E1,1.1073959E1,8.257974E0,3.633934E0,4.513254E0,1.6037493E0,2.5255175E0,0E0,0E0,0E0,0E0,0E0,0E0,0E0,0E0],"parents":[2147483647,0,0,1,1,2,2,3,3,4,4,5,5,6,6],"right_children":[2,4,6,8,10,12,14,-1,-1,-1,-1,-1,-1,-1,-1],"split_conditions":[1.8444737E2,-3.639398E0,2.6763768E0,9.77637E0,3.2044163E0,2.9426483E2,1.1598167E2,-4.3090668E-2,2.9179458E-2,-3.5169292E-2,-9.556031E-3,-2.97288E-2,2.142622E-2,6.401202E-2,1.238777E-2],"split_indices":[11,4,3,3,3,11,9,0,0,0,0,0,0,0,0],"split_type":[0,0,0,0,0,0,0,0,0,0,0,0,0,0,0],"sum_hessian":[2.4591695E2,2.2726067E2,1.865628E1,1.508743E2,7.6386375E1,8.778056E0,9.878224E0,1.497643E2,1.1099886E0,2.6070219E1,5.031616E1,7.6696196E0,1.1084367E0,4.95787E0,4.9203544E0],"tree_param":{"num_deleted":"0","num_feature":"17","num_nodes":"15","size_leaf_vector":"1"}},{"base_weights":[-6.046362E-1,-8.077644E-1,-3.789306E-1,-7.44808E-1,-5.0538845E-2,9.4840094E-2,-6.38131E-1,-4.0937416E-2,-3.3192926E-3,-1.1830851E-2,1.0045449E-2,-4.103723E-2,-2.4636086E-2],"categories":[],"categories_nodes":[],"categories_segments":[],"categories_sizes":[],"default_left":[0,0,0,0,0,0,0,0,0,0,0,0,0],"id":23,"left_children":[1,3,5,7,-1,9,11,-1,-1,-1,-1,-1,-1],"loss_changes":[1.0772057E1,8.6131287E-1,1.4347118E1,4.9719124E0,0E0,1.5245491E0,1.5958252E0,0E0,0E0,0E0,0E0,0E0,0E0],"parents":[2147483647,0,0,1,1,2,2,3,3,5,5,6,6],"right_children":[2,4,6,8,-1,10,12,-1,-1,-1,-1,-1,-1],"split_conditions":[3.0505297E0,1.07537506E2,1.2868083E2,2.6141016E0,-5.0538845E-2,3.3386118E0,4.5154634E0,-4.0937416E-2,-3.3192926E-3,-1.1830851E-2,1.0045449E-2,-4.103723E-2,-2.4636086E-2],"split_indices":[3,10,10,3,0,3,3,0,0,0,0,0,0],"split_type":[0,0,0,0,0,0,0,0,0,0,0,0,0],"sum_hessian":[2.4063205E2,1.2529316E2,1.1533889E2,9.919918E1,2.6093975E1,4.1011505E1,7.4327385E1,8.926362E1,9.935564E0,9.6439905E0,3.1367516E1,3.0889793E1,4.343759E1],"tree_param":{"num_deleted":"0","num_feature":"17","num_nodes":"13","size_leaf_vector":"1"}},{"base_weights":[-5.739488E-1,-8.9886403E-1,-3.7599248E-1,-6.433149E-1,-9.3434757E-1,-1.6768706E-1,-5.9375143E-1,-5.5639525E-3,-3.574306E-2,-1.0506517E-2,-4.708832E-2,-1.2947897E-2,1.732872E-2,-8.717297E-3,-3.3931624E-2],"categories":[],"categories_nodes":[],"categories_segments":[],"categories_sizes":[],"default_left":[0,0,0,0,0,0,0,0,0,0,0,0,0,0,0],"id":24,"left_children":[1,3,5,7,9,11,13,-1,-1,-1,-1,-1,-1,-1,-1],"loss_changes":[1.488575E1,2.0496368E-1,6.6500626E0,4.5520115E-1,2.0959473E-1,3.7247636E0,2.457512E0,0E0,0E0,0E0,0E0,0E0,0E0,0E0,0E0],"parents":[2147483647,0,0,1,1,2,2,3,3,4,4,5,5,6,6],"right_children":[2,4,6,8,10,12,14,-1,-1,-1,-1,-1,-1,-1,-1],"split_conditions":[-5.4182043E0,1.9102684E0,3.5794562E-1,1.5402736E1,8.542487E0,3.5547047E1,1.6960747E1,-5.5639525E-3,-3.574306E-2,-1.0506517E-2,-4.708832E-2,-1.2947897E-2,1.732872E-2,-8.717297E-3,-3.3931624E-2],"split_indices":[4,13,7,8,8,8,8,0,0,0,0,0,0,0,0],"split_type":[0,0,0,0,0,0,0,0,0,0,0,0,0,0,0],"sum_hessian":[2.3569084E2,8.789078E1,1.4780006E2,1.304829E1,7.484249E1,7.6444405E1,7.135566E1,1.8495939E0,1.1198696E1,1.0562534E0,7.378623E1,6.534368E1,1.1100721E1,1.2524563E1,5.88311E1],"tree_param":{"num_deleted":"0","num_feature":"17","num_nodes":"15","size_leaf_vector":"1"}},{"base_weights":[-5.5596334E-1,-7.861999E-1,-3.2816657E-1,-6.375915E-2,-8.000936E-1,1.396517E-1,-5.926148E-1,-1.3624695E-2,9.842722E-3,-3.6994264E-2,-5.000436E-2,3.6372081E-3,4.7103163E-2,-3.8322404E-2,-1.5791545E-2],"categories":[],"categories_nodes":[],"categories_segments":[],"categories_sizes":[],"default_left":[0,0,0,0,0,0,0,0,0,0,0,0,0,0,0],"id":25,"left_children":[1,3,5,7,9,11,13,-1,-1,-1,-1,-1,-1,-1,-1],"loss_changes":[1.1928787E1,1.101738E0,1.4744931E1,2.3063385E-1,6.158066E-1,2.2727818E0,3.4101334E0,0E0,0E0,0E0,0E0,0E0,0E0,0E0,0E0],"parents":[2147483647,0,0,1,1,2,2,3,3,4,4,5,5,6,6],"right_children":[2,4,6,8,10,12,14,-1,-1,-1,-1,-1,-1,-1,-1],"split_conditions":[2.980308E0,1.4689684E9,1.27544685E2,6.722614E-1,1.05599686E2,1.9839902E10,5.384171E0,-1.3624695E-2,9.842722E-3,-3.6994264E-2,-5.000436E-2,3.6372081E-3,4.7103163E-2,-3.8322404E-2,-1.5791545E-2],"split_indices":[3,5,10,3,10,5,3,0,0,0,0,0,0,0,0],"split_type":[0,0,0,0,0,0,0,0,0,0,0,0,0,0,0],"sum_hessian":[2.3136317E2,1.1384625E2,1.17516914E2,2.253587E0,1.1159267E2,4.261009E1,7.490683E1,1.2260299E0,1.0275571E0,8.938325E1,2.2209417E1,4.0337296E1,2.272791E0,4.4923595E1,2.9983234E1],"tree_param":{"num_deleted":"0","num_feature":"17","num_nodes":"15","size_leaf_vector":"1"}},{"base_weights":[-5.750238E-1,-5.2144405E-2,9.976276E-2],"categories":[],"categories_nodes":[],"categories_segments":[],"categories_sizes":[],"default_left":[0,0,0],"id":26,"left_children":[1,-1,-1],"loss_changes":[2.7027344E2,0E0,0E0],"parents":[2147483647,0,0],"right_children":[2,-1,-1],"split_conditions":[3.6933124E0,-5.2144405E-2,9.976276E-2],"split_indices":[2,0,0],"split_type":[0,0,0],"sum_hessian":[2.2202147E2,1.8833362E2,3.368785E1],"tree_param":{"num_deleted":"0","num_feature":"17","num_nodes":"3","size_leaf_vector":"1"}},{"base_weights":[-5.467674E-1,-5.2013095E-2,9.538331E-2],"categories":[],"categories_nodes":[],"categories_segments":[],"categories_sizes":[],"default_left":[0,0,0],"id":27,"left_children":[1,-1,-1],"loss_changes":[2.6825864E2,0E0,0E0],"parents":[2147483647,0,0],"right_children":[2,-1,-1],"split_conditions":[3.6933124E0,-5.2013095E-2,9.538331E-2],"split_indices":[2,0,0],"split_type":[0,0,0],"sum_hessian":[2.1883434E2,1.8268034E2,3.6153988E1],"tree_param":{"num_deleted":"0","num_feature":"17","num_nodes":"3","size_leaf_vector":"1"}},{"base_weights":[-5.332252E-1,-7.307208E-1,-1.7937922E-1,-9.176192E-1,-5.866613E-1,-3.2804754E-1,1.194138E-1,-2.9236266E-2,-4.7869526E-2,7.3448094E-3,-3.0299276E-2,1.9729888E-2,-1.8033236E-2,-2.1996588E-2,1.3948022E-2],"categories":[],"categories_nodes":[],"categories_segments":[],"categories_sizes":[],"default_left":[0,0,0,0,0,0,0,0,0,0,0,0,0,0,0],"id":28,"left_children":[1,3,5,7,9,11,13,-1,-1,-1,-1,-1,-1,-1,-1],"loss_changes":[1.4500797E1,3.0709229E0,3.429655E0,1.8924332E-1,1.201416E0,1.3499293E0,2.4512472E0,0E0,0E0,0E0,0E0,0E0,0E0,0E0,0E0],"parents":[2147483647,0,0,1,1,2,2,3,3,4,4,5,5,6,6],"right_children":[2,4,6,8,10,12,14,-1,-1,-1,-1,-1,-1,-1,-1],"split_conditions":[-3.6230326E0,-6.2713394E0,-2.39361E0,1.9102684E0,-6.19839E0,-3.6000123E0,6.011396E1,-2.9236266E-2,-4.7869526E-2,7.3448094E-3,-3.0299276E-2,1.9729888E-2,-1.8033236E-2,-2.1996588E-2,1.3948022E-2],"split_indices":[4,4,4,13,4,4,0,0,0,0,0,0,0,0,0],"split_type":[0,0,0,0,0,0,0,0,0,0,0,0,0,0,0],"sum_hessian":[2.0837671E2,1.330507E2,7.5326004E1,5.557703E1,7.747367E1,5.023368E1,2.5092323E1,7.607002E0,4.797003E1,1.8190769E0,7.5654594E1,1.6901428E0,4.8543537E1,5.1788163E0,1.9913506E1],"tree_param":{"num_deleted":"0","num_feature":"17","num_nodes":"15","size_leaf_vector":"1"}},{"base_weights":[-5.069738E-1,-7.27394E-1,-2.8194588E-1,-3.8580894E-1,-7.8723127E-1,1.1522624E-1,-5.20523E-1,-6.856609E-3,-4.2959996E-2,-4.218225E-2,-2.8757617E-2,-6.7368173E-3,1.8264042E-2,-3.5018723E-2,-1.2281018E-2],"categories":[],"categories_nodes":[],"categories_segments":[],"categories_sizes":[],"default_left":[0,0,0,0,0,0,0,0,0,0,0,0,0,0,0],"id":29,"left_children":[1,3,5,7,9,11,13,-1,-1,-1,-1,-1,-1,-1,-1],"loss_changes":[9.968193E0,1.801136E0,9.831611E0,1.9201169E0,5.5168533E-1,2.5192616E0,3.0221996E0,0E0,0E0,0E0,0E0,0E0,0E0,0E0,0E0],"parents":[2147483647,0,0,1,1,2,2,3,3,4,4,5,5,6,6],"right_children":[2,4,6,8,10,12,14,-1,-1,-1,-1,-1,-1,-1,-1],"split_conditions":[3.025941E0,-5.583206E-1,1.283325E2,2.2221735E0,2.3530595E0,3.8586621E0,5.444269E0,-6.856609E-3,-4.2959996E-2,-4.218225E-2,-2.8757617E-2,-6.7368173E-3,1.8264042E-2,-3.5018723E-2,-1.2281018E-2],"split_indices":[3,7,9,14,3,3,3,0,0,0,0,0,0,0,0],"split_type":[0,0,0,0,0,0,0,0,0,0,0,0,0,0,0],"sum_hessian":[2.0410359E2,1.0197964E2,1.0212396E2,1.6311567E1,8.566807E1,3.8518005E1,6.3605953E1,1.153946E1,4.772108E0,6.531584E1,2.0352228E1,1.9493176E1,1.9024832E1,3.7514725E1,2.6091228E1],"tree_param":{"num_deleted":"0","num_feature":"17","num_nodes":"15","size_leaf_vector":"1"}},{"base_weights":[-4.980184E-1,-6.0034263E-1,-3.6448967E-1,-2.676855E-1,-6.584936E-1,-4.439683E-2,-3.1768197E-1,-2.774981E-2,-3.7033379E-3,1.528798E-4,-3.3609267E-2,-9.325523E-3,-2.883303E-2],"categories":[],"categories_nodes":[],"categories_segments":[],"categories_sizes":[],"default_left":[0,0,0,0,0,0,0,0,0,0,0,0,0],"id":30,"left_children":[1,3,5,7,9,-1,11,-1,-1,-1,-1,-1,-1],"loss_changes":[2.5481033E0,2.011673E0,1.9329176E0,9.888381E-1,8.6789703E-1,0E0,2.7643137E0,0E0,0E0,0E0,0E0,0E0,0E0],"parents":[2147483647,0,0,1,1,2,2,3,3,4,4,6,6],"right_children":[2,4,6,8,10,-1,12,-1,-1,-1,-1,-1,-1],"split_conditions":[1.023028E10,0E0,5.7198875E1,5.7046016E9,1.4689684E9,-4.439683E-2,1.27544685E2,-2.774981E-2,-3.7033379E-3,1.528798E-4,-3.3609267E-2,-9.325523E-3,-2.883303E-2],"split_indices":[5,14,10,5,5,0,10,0,0,0,0,0,0],"split_type":[0,0,0,0,0,0,0,0,0,0,0,0,0],"sum_hessian":[2.0150827E2,1.1210514E2,8.940313E1,1.7514618E1,9.459052E1,5.8633933E0,8.3539734E1,6.299845E0,1.1214772E1,1.9337466E0,9.265678E1,5.6594864E1,2.694487E1],"tree_param":{"num_deleted":"0","num_feature":"17","num_nodes":"13","size_leaf_vector":"1"}},{"base_weights":[-4.914542E-1,-5.1707644E-2,9.385496E-2],"categories":[],"categories_nodes":[],"categories_segments":[],"categories_sizes":[],"default_left":[0,0,0],"id":31,"left_children":[1,-1,-1],"loss_changes":[2.566438E2,0E0,0E0],"parents":[2147483647,0,0],"right_children":[2,-1,-1],"split_conditions":[3.6933124E0,-5.1707644E-2,9.385496E-2],"split_indices":[2,0,0],"split_type":[0,0,0],"sum_hessian":[1.9714882E2,1.6085585E2,3.629298E1],"tree_param":{"num_deleted":"0","num_feature":"17","num_nodes":"3","size_leaf_vector":"1"}},{"base_weights":[-4.6807435E-1,-9.5117354E-1,-2.097797E-1,-9.729236E-1,6.6023394E-3,-6.0256994E-1,-2.408075E-3,-5.080402E-2,-3.153742E-2,-3.547087E-2,3.5210505E-2,-9.027994E-3,1.8585416E-2],"categories":[],"categories_nodes":[],"categories_segments":[],"categories_sizes":[],"default_left":[0,0,0,0,0,0,0,0,0,0,0,0,0],"id":32,"left_children":[1,3,5,7,-1,9,11,-1,-1,-1,-1,-1,-1],"loss_changes":[2.3493843E1,1.6803398E0,1.01810055E1,3.1443024E-1,0E0,6.5300264E0,5.586988E0,0E0,0E0,0E0,0E0,0E0,0E0],"parents":[2147483647,0,0,1,1,2,2,3,3,5,5,6,6],"right_children":[2,4,6,8,-1,10,12,-1,-1,-1,-1,-1,-1],"split_conditions":[4.22538E7,9.77637E0,2.431243E0,3.6358E7,6.6023394E-3,2.248052E8,1.02472E8,-5.080402E-2,-3.153742E-2,-3.547087E-2,3.5210505E-2,-9.027994E-3,1.8585416E-2],"split_indices":[1,3,3,1,0,1,1,0,0,0,0,0,0],"split_type":[0,0,0,0,0,0,0,0,0,0,0,0,0],"sum_hessian":[1.8887822E2,6.486883E1,1.24009384E2,6.3691784E1,1.1770469E0,4.219E1,8.181938E1,5.4809475E1,8.882308E0,3.942369E1,2.7663078E0,5.5776394E1,2.604299E1],"tree_param":{"num_deleted":"0","num_feature":"17","num_nodes":"13","size_leaf_vector":"1"}},{"base_weights":[-4.8020846E-1,-2.985131E-1,-6.5893984E-1,-9.050847E-2,-4.8451397E-1,-5.362326E-1,-7.768256E-1,-1.724716E-2,2.363956E-3,-4.915665E-3,-3.0550724E-2,-3.029014E-2,2.368233E-3,-1.7325876E-2,-4.0290933E-2],"categories":[],"categories_nodes":[],"categories_segments":[],"categories_sizes":[],"default_left":[0,0,0,0,0,0,0,0,0,0,0,0,0,0,0],"id":33,"left_children":[1,3,5,7,9,11,13,-1,-1,-1,-1,-1,-1,-1,-1],"loss_changes":[5.782917E0,3.5595322E0,9.141884E-1,1.6008426E0,2.3308487E0,1.9899006E0,2.7832603E-1,0E0,0E0,0E0,0E0,0E0,0E0,0E0,0E0],"parents":[2147483647,0,0,1,1,2,2,3,3,4,4,5,5,6,6],"right_children":[2,4,6,8,10,12,14,-1,-1,-1,-1,-1,-1,-1,-1],"split_conditions":[8.802667E3,1.283325E2,2.9699621E0,9.33425E1,0E0,3.7437725E1,1.4369936E1,-1.724716E-2,2.363956E-3,-4.915665E-3,-3.0550724E-2,-3.029014E-2,2.368233E-3,-1.7325876E-2,-4.0290933E-2],"split_indices":[16,9,13,9,14,8,8,0,0,0,0,0,0,0,0],"split_type":[0,0,0,0,0,0,0,0,0,0,0,0,0,0,0],"sum_hessian":[1.8313191E2,9.2137085E1,9.0994835E1,4.419757E1,4.7939514E1,4.7304417E1,4.369042E1,1.4998437E1,2.9199137E1,1.2266769E1,3.5672745E1,4.223193E1,5.0724874E0,3.575497E0,4.011492E1],"tree_param":{"num_deleted":"0","num_feature":"17","num_nodes":"15","size_leaf_vector":"1"}},{"base_weights":[-4.637626E-1,-1.7870066E-1,-5.9846276E-1,-8.509069E-2,-5.933526E-1,-4.0738282E-1,-7.057282E-1,-1.2856707E-3,-3.8494278E-2,-4.1380897E-2,1.056372E-2,-1.0224234E-2,-3.0341117E-2,-3.7489668E-2,-9.390444E-3],"categories":[],"categories_nodes":[],"categories_segments":[],"categories_sizes":[],"default_left":[0,0,0,0,0,0,0,0,0,0,0,0,0,0,0],"id":34,"left_children":[1,3,5,7,9,11,13,-1,-1,-1,-1,-1,-1,-1,-1],"loss_changes":[6.7995834E0,2.2452383E0,2.2073631E0,1.9896373E0,2.1965938E0,1.7425671E0,1.6072197E0,0E0,0E0,0E0,0E0,0E0,0E0,0E0,0E0],"parents":[2147483647,0,0,1,1,2,2,3,3,4,4,5,5,6,6],"right_children":[2,4,6,8,10,12,14,-1,-1,-1,-1,-1,-1,-1,-1],"split_conditions":[-5.583206E-1,1.6609479E2,2.4045608E0,4.7977753E1,3.1243586E1,1.2558901E2,1.9309853E10,-1.2856707E-3,-3.8494278E-2,-4.1380897E-2,1.056372E-2,-1.0224234E-2,-3.0341117E-2,-3.7489668E-2,-9.390444E-3],"split_indices":[7,10,13,8,8,10,5,0,0,0,0,0,0,0,0],"split_type":[0,0,0,0,0,0,0,0,0,0,0,0,0,0,0],"sum_hessian":[1.7886736E2,5.8144505E1,1.2072285E2,4.8418884E1,9.725622E0,4.512902E1,7.559383E1,4.551032E1,2.9085653E0,7.5104094E0,2.2152126E0,2.3374481E1,2.1754538E1,6.925392E1,6.33991E0],"tree_param":{"num_deleted":"0","num_feature":"17","num_nodes":"15","size_leaf_vector":"1"}},{"base_weights":[-4.444415E-1,-5.2505726E-1,4.4114903E-1,-7.722825E-1,-3.0847237E-1,-2.9610671E-2,7.770163E-1,-1.429362E-2,-4.1236237E-2,-2.4521064E-2,-6.4295717E-3,-2.7424244E-2,1.8518379E-2,4.6016973E-2,-8.231738E-4],"categories":[],"categories_nodes":[],"categories_segments":[],"categories_sizes":[],"default_left":[0,0,0,0,0,0,0,0,0,0,0,0,0,0,0],"id":35,"left_children":[1,3,5,7,9,11,13,-1,-1,-1,-1,-1,-1,-1,-1],"loss_changes":[1.310162E1,8.6334915E0,2.4870958E0,1.7208672E0,2.881939E0,1.7497975E0,1.053679E0,0E0,0E0,0E0,0E0,0E0,0E0,0E0,0E0],"parents":[2147483647,0,0,1,1,2,2,3,3,4,4,5,5,6,6],"right_children":[2,4,6,8,10,12,14,-1,-1,-1,-1,-1,-1,-1,-1],"split_conditions":[1.8444737E2,2.980308E0,2.6763768E0,-1.1475243E2,1.0187216E10,2.1791217E2,1.9227961E10,-1.429362E-2,-4.1236237E-2,-2.4521064E-2,-6.4295717E-3,-2.7424244E-2,1.8518379E-2,4.6016973E-2,-8.231738E-4],"split_indices":[11,3,3,11,5,11,5,0,0,0,0,0,0,0,0],"split_type":[0,0,0,0,0,0,0,0,0,0,0,0,0,0,0],"sum_hessian":[1.7927077E2,1.6468639E2,1.4584373E1,7.57053E1,8.898109E1,6.452388E0,8.131986E0,7.9956446E0,6.7709656E1,4.3378017E1,4.560307E1,2.647115E0,3.8052728E0,6.7524405E0,1.3795447E0],"tree_param":{"num_deleted":"0","num_feature":"17","num_nodes":"15","size_leaf_vector":"1"}},{"base_weights":[-4.4749653E-1,-5.2094305E-1,3.9176366E-1,-8.374788E-1,-2.721175E-1,-3.121289E-2,5.5812275E-1,-4.901539E-2,-3.2887753E-2,-2.3002408E-3,-2.3978071E-2,3.61066E-2,1.7134635E-3],"categories":[],"categories_nodes":[],"categories_segments":[],"categories_sizes":[],"default_left":[0,0,0,0,0,0,0,0,0,0,0,0,0],"id":36,"left_children":[1,3,5,7,9,-1,11,-1,-1,-1,-1,-1,-1],"loss_changes":[1.0906864E1,1.2381023E1,2.806549E0,1.151474E0,4.251611E0,0E0,1.0943079E0,0E0,0E0,0E0,0E0,0E0,0E0],"parents":[2147483647,0,0,1,1,2,2,3,3,4,4,6,6],"right_children":[2,4,6,8,10,-1,12,-1,-1,-1,-1,-1,-1],"split_conditions":[1.8834737E2,-4.677713E0,-8.50689E0,-6.4510713E0,-5.4069147E0,-3.121289E-2,1.2950232E2,-4.901539E-2,-3.2887753E-2,-2.3002408E-3,-2.3978071E-2,3.61066E-2,1.7134635E-3],"split_indices":[11,4,4,4,11,0,0,0,0,0,0,0,0],"split_type":[0,0,0,0,0,0,0,0,0,0,0,0,0],"sum_hessian":[1.7263155E2,1.5908846E2,1.3543088E1,6.897645E1,9.0112015E1,1.5182227E0,1.2024865E1,3.5951096E1,3.3025352E1,4.3700497E1,4.641152E1,8.869486E0,3.1553795E0],"tree_param":{"num_deleted":"0","num_feature":"17","num_nodes":"13","size_leaf_vector":"1"}},{"base_weights":[-4.4012952E-1,-5.1346917E-2,9.101061E-2],"categories":[],"categories_nodes":[],"categories_segments":[],"categories_sizes":[],"default_left":[0,0,0],"id":37,"left_children":[1,-1,-1],"loss_changes":[2.2637012E2,0E0,0E0],"parents":[2147483647,0,0],"right_children":[2,-1,-1],"split_conditions":[3.6933124E0,-5.1346917E-2,9.101061E-2],"split_indices":[2,0,0],"split_type":[0,0,0],"sum_hessian":[1.6825728E2,1.34012E2,3.4245277E1],"tree_param":{"num_deleted":"0","num_feature":"17","num_nodes":"3","size_leaf_vector":"1"}},{"base_weights":[-4.2271176E-1,-9.292685E-1,-1.6723192E-1,-5.02096E-2,-5.97861E-1,-2.4887474E-1,7.852991E-1,-3.702977E-2,1.5011551E-2,-3.742149E-2,-7.8033665E-3,1.3810088E-2,4.365718E-2],"categories":[],"categories_nodes":[],"categories_segments":[],"categories_sizes":[],"default_left":[0,0,0,0,0,0,0,0,0,0,0,0,0],"id":38,"left_children":[1,3,5,-1,7,9,11,-1,-1,-1,-1,-1,-1],"loss_changes":[2.1066036E1,7.592468E-1,8.767225E0,0E0,1.8334093E0,4.6251993E0,1.5874529E-1,0E0,0E0,0E0,0E0,0E0,0E0],"parents":[2147483647,0,0,1,1,2,2,4,4,5,5,6,6],"right_children":[2,4,6,-1,8,10,12,-1,-1,-1,-1,-1,-1],"split_conditions":[4.22538E7,3.4186E7,2.1266814E2,-5.02096E-2,2.5586581E2,5.0347E1,6.1806156E1,-3.702977E-2,1.5011551E-2,-3.742149E-2,-7.8033665E-3,1.3810088E-2,4.365718E-2],"split_indices":[1,1,11,0,0,0,0,0,0,0,0,0,0],"split_type":[0,0,0,0,0,0,0,0,0,0,0,0,0],"sum_hessian":[1.6297974E2,5.3756275E1,1.09223465E2,4.2188385E1,1.1567888E1,1.0128122E2,7.942239E0,1.0132838E1,1.4350507E0,1.4761275E1,8.651995E1,1.7786112E0,6.1636276E0],"tree_param":{"num_deleted":"0","num_feature":"17","num_nodes":"13","size_leaf_vector":"1"}},{"base_weights":[-4.1591746E-1,-4.8714307E-1,3.4356397E-1,-1.0814449E-1,-7.004594E-1,3.4984685E-2,1.1474578E-1,-3.708926E-2,2.0032578E-4,-3.890965E-2,-1.8765232E-2,-4.430184E-3,3.1458177E-2],"categories":[],"categories_nodes":[],"categories_segments":[],"categories_sizes":[],"default_left":[0,0,0,0,0,0,0,0,0,0,0,0,0],"id":39,"left_children":[1,3,5,7,9,-1,11,-1,-1,-1,-1,-1,-1],"loss_changes":[8.640322E0,1.1535141E1,1.061882E0,3.7625513E0,2.0259933E0,0E0,1.0735235E0,0E0,0E0,0E0,0E0,0E0,0E0],"parents":[2147483647,0,0,1,1,2,2,3,3,4,4,6,6],"right_children":[2,4,6,8,10,-1,12,-1,-1,-1,-1,-1,-1],"split_conditions":[1.8444737E2,-5.88107E-1,5.577162E0,-1.4186023E2,1.2948843E2,3.4984685E-2,2.9426483E2,-3.708926E-2,2.0032578E-4,-3.890965E-2,-1.8765232E-2,-4.430184E-3,3.1458177E-2],"split_indices":[11,7,15,11,11,0,11,0,0,0,0,0,0],"split_type":[0,0,0,0,0,0,0,0,0,0,0,0,0],"sum_hessian":[1.556325E2,1.4261627E2,1.301624E1,5.190455E1,9.0711716E1,4.2866673E0,8.729573E0,6.961077E0,4.4943474E1,7.208524E1,1.8626469E1,6.84966E0,1.879913E0],"tree_param":{"num_deleted":"0","num_feature":"17","num_nodes":"13","size_leaf_vector":"1"}},{"base_weights":[-4.03721E-1,-9.315421E-1,-1.5429816E-1,-5.0025184E-2,-5.8099616E-1,-8.1942403E-1,-1.3485754E-2,-8.239354E-3,-4.2948492E-2,-4.4134032E-2,3.6538437E-3,-2.6167009E-2,2.9581746E-3],"categories":[],"categories_nodes":[],"categories_segments":[],"categories_sizes":[],"default_left":[0,0,0,0,0,0,0,0,0,0,0,0,0],"id":40,"left_children":[1,3,5,-1,7,9,11,-1,-1,-1,-1,-1,-1],"loss_changes":[2.0420492E1,6.2568283E-1,1.0036102E1,0E0,1.0839512E0,1.1217203E0,3.347896E0,0E0,0E0,0E0,0E0,0E0,0E0],"parents":[2147483647,0,0,1,1,2,2,4,4,5,5,6,6],"right_children":[2,4,6,-1,8,10,12,-1,-1,-1,-1,-1,-1],"split_conditions":[4.07978E7,3.4186E7,-6.238453E0,-5.0025184E-2,5.577162E0,1.8967268E2,5.2305E1,-8.239354E-3,-4.2948492E-2,-4.4134032E-2,3.6538437E-3,-2.6167009E-2,2.9581746E-3],"split_indices":[1,1,4,0,15,0,0,0,0,0,0,0,0],"split_type":[0,0,0,0,0,0,0,0,0,0,0,0,0],"sum_hessian":[1.5520303E2,4.892809E1,1.0627494E2,3.9335613E1,9.592476E0,1.7726192E1,8.8548744E1,4.4789596E0,5.1135163E0,1.6563263E1,1.1629286E0,1.0269993E1,7.8278755E1],"tree_param":{"num_deleted":"0","num_feature":"17","num_nodes":"13","size_leaf_vector":"1"}},{"base_weights":[-4.1077778E-1,-6.2786907E-1,-7.911458E-2,-8.778398E-1,-4.753005E-1,-4.109813E-2,2.6088618E-2,-4.6406984E-2,-5.468993E-3,-4.3210067E-2,-1.6973121E-2,-6.059338E-3,1.7282903E-2],"categories":[],"categories_nodes":[],"categories_segments":[],"categories_sizes":[],"default_left":[0,0,0,0,0,0,0,0,0,0,0,0,0],"id":41,"left_children":[1,3,5,7,9,-1,11,-1,-1,-1,-1,-1,-1],"loss_changes":[1.108947E1,3.143299E0,4.8939157E0,1.2205868E0,2.8845253E0,0E0,2.6578648E0,0E0,0E0,0E0,0E0,0E0,0E0],"parents":[2147483647,0,0,1,1,2,2,3,3,4,4,6,6],"right_children":[2,4,6,8,10,-1,12,-1,-1,-1,-1,-1,-1],"split_conditions":[-3.639398E0,-6.4510713E0,3.468522E1,7.016795E1,4.651724E1,-4.109813E-2,-2.39361E0,-4.6406984E-2,-5.468993E-3,-4.3210067E-2,-1.6973121E-2,-6.059338E-3,1.7282903E-2],"split_indices":[4,4,12,12,12,0,4,0,0,0,0,0,0],"split_type":[0,0,0,0,0,0,0,0,0,0,0,0,0],"sum_hessian":[1.5370778E2,9.236008E1,6.1347702E1,3.3204147E1,5.915593E1,6.7651753E0,5.4582527E1,3.0969252E1,2.2348955E0,1.3925524E1,4.5230404E1,3.7788338E1,1.6794188E1],"tree_param":{"num_deleted":"0","num_feature":"17","num_nodes":"13","size_leaf_vector":"1"}},{"base_weights":[-3.8652763E-1,-8.7950665E-1,-1.1962777E-1,-9.050874E-1,6.8763196E-3,-3.381991E-1,2.138129E-1,-4.993158E-2,-2.6915206E-2,-2.0407777E-2,2.8514652E-2,-8.034019E-3,2.9419566E-2],"categories":[],"categories_nodes":[],"categories_segments":[],"categories_sizes":[],"default_left":[0,0,0,0,0,0,0,0,0,0,0,0,0],"id":42,"left_children":[1,3,5,7,-1,9,11,-1,-1,-1,-1,-1,-1],"loss_changes":[1.9676302E1,1.4942169E0,7.265176E0,1.229042E0,0E0,4.0462475E0,5.662265E0,0E0,0E0,0E0,0E0,0E0,0E0],"parents":[2147483647,0,0,1,1,2,2,3,3,5,5,6,6],"right_children":[2,4,6,8,-1,10,12,-1,-1,-1,-1,-1,-1],"split_conditions":[4.573E7,9.77637E0,9.9878E7,3.6358E7,6.8763196E-3,1.9951343E2,3.4491956E0,-4.993158E-2,-2.6915206E-2,-2.0407777E-2,2.8514652E-2,-8.034019E-3,2.9419566E-2],"split_indices":[1,3,1,1,0,11,3,0,0,0,0,0,0],"split_type":[0,0,0,0,0,0,0,0,0,0,0,0,0],"sum_hessian":[1.4934283E2,5.164899E1,9.769384E1,5.048914E1,1.1598506E0,5.9002956E1,3.8690887E1,3.885653E1,1.1632612E1,5.529576E1,3.7071931E0,1.9633194E1,1.9057693E1],"tree_param":{"num_deleted":"0","num_feature":"17","num_nodes":"13","size_leaf_vector":"1"}},{"base_weights":[-3.5254142E-1,-9.199704E-1,-1.0123571E-1,-4.97061E-2,-6.0725546E-1,-1.4910153E-1,8.235061E-1,-3.8339257E-2,1.2260188E-2,-1.7375013E-2,8.24245E-3,9.639042E-3,5.291722E-2],"categories":[],"categories_nodes":[],"categories_segments":[],"categories_sizes":[],"default_left":[0,0,0,0,0,0,0,0,0,0,0,0,0],"id":43,"left_children":[1,3,5,-1,7,9,11,-1,-1,-1,-1,-1,-1],"loss_changes":[2.124646E1,4.585762E-1,4.7633047E0,0E0,1.7315612E0,6.318762E0,5.828965E-1,0E0,0E0,0E0,0E0,0E0,0E0],"parents":[2147483647,0,0,1,1,2,2,4,4,5,5,6,6],"right_children":[2,4,6,-1,8,10,12,-1,-1,-1,-1,-1,-1],"split_conditions":[4.22538E7,3.4186E7,2.0148549E2,-4.97061E-2,2.5586581E2,9.9878E7,5.5714603E1,-3.8339257E-2,1.2260188E-2,-1.7375013E-2,8.24245E-3,9.639042E-3,5.291722E-2],"split_indices":[1,1,0,0,0,1,12,0,0,0,0,0,0],"split_type":[0,0,0,0,0,0,0,0,0,0,0,0,0],"sum_hessian":[1.4864848E2,4.481006E1,1.0383843E2,3.4459854E1,1.0350203E1,9.952562E1,4.312809E0,8.803259E0,1.5469438E0,6.0920498E1,3.860512E1,1.6641549E0,2.6486542E0],"tree_param":{"num_deleted":"0","num_feature":"17","num_nodes":"13","size_leaf_vector":"1"}},{"base_weights":[-3.296143E-1,-1.1944679E-1,-4.925635E-1,-3.669486E-2,-5.631789E-1,-5.833848E-1,-2.6586506E-1,-2.5407214E-2,3.0507415E-3,-1.4211549E-4,-3.5662845E-2,-2.3672055E-2,-4.1812737E-2,-9.346864E-3,-2.7316919E-2],"categories":[],"categories_nodes":[],"categories_segments":[],"categories_sizes":[],"default_left":[0,0,0,0,0,0,0,0,0,0,0,0,0,0,0],"id":44,"left_children":[1,3,5,7,9,11,13,-1,-1,-1,-1,-1,-1,-1,-1],"loss_changes":[4.9702616E0,2.3827431E0,1.5413628E0,2.6214697E0,8.5725474E-1,1.2163181E0,4.6027434E-1,0E0,0E0,0E0,0E0,0E0,0E0,0E0,0E0],"parents":[2147483647,0,0,1,1,2,2,3,3,4,4,5,5,6,6],"right_children":[2,4,6,8,10,12,14,-1,-1,-1,-1,-1,-1,-1,-1],"split_conditions":[5.184781E-2,1.6541583E2,2.7095642E0,5.2305E1,-5.465968E0,1.2319841E2,2.5815915E2,-2.5407214E-2,3.0507415E-3,-1.4211549E-4,-3.5662845E-2,-2.3672055E-2,-4.1812737E-2,-9.346864E-3,-2.7316919E-2],"split_indices":[7,9,7,0,7,10,9,0,0,0,0,0,0,0,0],"split_type":[0,0,0,0,0,0,0,0,0,0,0,0,0,0,0],"sum_hessian":[1.4584944E2,6.445287E1,8.1396576E1,5.523479E1,9.218081E0,5.6991066E1,2.440551E1,8.76124E0,4.6473553E1,2.1626132E0,7.0554686E0,4.17229E1,1.5268165E1,2.0346363E1,4.0591483E0],"tree_param":{"num_deleted":"0","num_feature":"17","num_nodes":"15","size_leaf_vector":"1"}},{"base_weights":[-3.5734668E-1,-6.8136066E-1,-1.5891662E-1,-4.867446E-2,-4.866337E-1,-4.1208073E-2,-9.265951E-2,5.5147934E-4,-3.4725495E-2,-1.0296926E-2,1.5859395E-2],"categories":[],"categories_nodes":[],"categories_segments":[],"categories_sizes":[],"default_left":[0,0,0,0,0,0,0,0,0,0,0],"id":45,"left_children":[1,3,5,-1,7,-1,9,-1,-1,-1,-1],"loss_changes":[9.107643E0,2.6059208E0,3.899491E0,0E0,3.5751143E0,0E0,3.926133E0,0E0,0E0,0E0,0E0],"parents":[2147483647,0,0,1,1,2,2,4,4,6,6],"right_children":[2,4,6,-1,8,-1,10,-1,-1,-1,-1],"split_conditions":[-4.915422E0,5.288872E1,3.468522E1,-4.867446E-2,1.7073614E1,-4.1208073E-2,-2.39361E0,5.5147934E-4,-3.4725495E-2,-1.0296926E-2,1.5859395E-2],"split_indices":[4,12,12,0,8,0,4,0,0,0,0],"split_type":[0,0,0,0,0,0,0,0,0,0,0],"sum_hessian":[1.4234009E2,5.313798E1,8.920211E1,1.9653954E1,3.3484028E1,7.0435495E0,8.215856E1,1.0144547E1,2.333948E1,6.4757545E1,1.7401016E1],"tree_param":{"num_deleted":"0","num_feature":"17","num_nodes":"11","size_leaf_vector":"1"}},{"base_weights":[-3.3626968E-1,-9.7276694E-1,-1.0954598E-1,-4.9610145E-2,-2.051256E-2,-6.295425E-1,-2.8314693E-2,-4.4098746E-2,3.6680173E-2,2.366793E-2,-5.832854E-3],"categories":[],"categories_nodes":[],"categories_segments":[],"categories_sizes":[],"default_left":[0,0,0,0,0,0,0,0,0,0,0],"id":46,"left_children":[1,3,5,-1,-1,7,9,-1,-1,-1,-1],"loss_changes":[2.0455227E1,7.133484E-4,4.4675565E0,0E0,0E0,5.5676355E0,4.171933E0,0E0,0E0,0E0,0E0],"parents":[2147483647,0,0,1,1,2,2,5,5,6,6],"right_children":[2,4,6,-1,-1,8,10,-1,-1,-1,-1],"split_conditions":[3.7752E7,3.6358E7,5.0347E1,-4.9610145E-2,-2.051256E-2,2.248052E8,-3.3190773E0,-4.4098746E-2,3.6680173E-2,2.366793E-2,-5.832854E-3],"split_indices":[1,1,0,0,0,1,7,0,0,0,0],"split_type":[0,0,0,0,0,0,0,0,0,0,0],"sum_hessian":[1.4148447E2,3.629643E1,1.0518804E2,3.4345848E1,1.9505787E0,1.3299866E1,9.1888176E1,1.1519608E1,1.7802579E0,1.3105763E1,7.878242E1],"tree_param":{"num_deleted":"0","num_feature":"17","num_nodes":"11","size_leaf_vector":"1"}},{"base_weights":[-3.2007274E-1,-5.0919812E-2,8.985992E-2],"categories":[],"categories_nodes":[],"categories_segments":[],"categories_sizes":[],"default_left":[0,0,0],"id":47,"left_children":[1,-1,-1],"loss_changes":[2.101036E2,0E0,0E0],"parents":[2147483647,0,0],"right_children":[2,-1,-1],"split_conditions":[3.6933124E0,-5.0919812E-2,8.985992E-2],"split_indices":[2,0,0],"split_type":[0,0,0],"sum_hessian":[1.3986418E2,1.0556535E2,3.429882E1],"tree_param":{"num_deleted":"0","num_feature":"17","num_nodes":"3","size_leaf_vector":"1"}},{"base_weights":[-3.0696782E-1,-9.490798E-1,-8.078282E-2,-4.9336806E-2,-5.368346E-1,-2.0638207E-1,4.6538147E-1,-3.8690384E-2,1.0975572E-2,-2.8598342E-2,5.7629694E-4,-1.9617597E-2,2.828818E-2],"categories":[],"categories_nodes":[],"categories_segments":[],"categories_sizes":[],"default_left":[0,0,0,0,0,0,0,0,0,0,0,0,0],"id":48,"left_children":[1,3,5,-1,7,9,11,-1,-1,-1,-1,-1,-1],"loss_changes":[1.9732174E1,2.0378113E-2,7.0899315E0,0E0,1.0945545E0,6.665314E0,1.8897285E0,0E0,0E0,0E0,0E0,0E0,0E0],"parents":[2147483647,0,0,1,1,2,2,4,4,5,5,6,6],"right_children":[2,4,6,-1,8,10,12,-1,-1,-1,-1,-1,-1],"split_conditions":[3.7752E7,2.8734082E2,1.53542E2,-4.9336806E-2,3.1318E7,-4.3509564E0,-7.7577868E0,-3.8690384E-2,1.0975572E-2,-2.8598342E-2,5.7629694E-4,-1.9617597E-2,2.828818E-2],"split_indices":[1,9,11,0,1,4,4,0,0,0,0,0,0],"split_type":[0,0,0,0,0,0,0,0,0,0,0,0,0],"sum_hessian":[1.3539064E2,3.4435726E1,1.0095491E2,3.0276564E1,4.1591606E0,8.2585236E1,1.8369675E1,3.1493437E0,1.009817E0,3.0235035E1,5.2350197E1,1.6198641E0,1.6749811E1],"tree_param":{"num_deleted":"0","num_feature":"17","num_nodes":"13","size_leaf_vector":"1"}},{"base_weights":[-2.7486405E-1,-3.596677E-1,4.4803867E-1,1.5467844E-2,-5.946547E-1,3.8696498E-2,2.258966E-1,-1.2529737E-2,1.0308473E-2,-3.313237E-2,-7.614964E-3,2.4796091E-2,-7.858098E-3],"categories":[],"categories_nodes":[],"categories_segments":[],"categories_sizes":[],"default_left":[0,0,0,0,0,0,0,0,0,0,0,0,0],"id":49,"left_children":[1,3,5,7,9,-1,11,-1,-1,-1,-1,-1,-1],"loss_changes":[8.450976E0,1.0726753E1,8.85226E-1,2.4770195E0,2.1482143E0,0E0,1.1246687E0,0E0,0E0,0E0,0E0,0E0,0E0],"parents":[2147483647,0,0,1,1,2,2,3,3,4,4,6,6],"right_children":[2,4,6,8,10,-1,12,-1,-1,-1,-1,-1,-1],"split_conditions":[1.8184158E2,-5.88107E-1,6.3044447E-1,-8.069183E1,1.4365125E2,3.8696498E-2,2.4045608E0,-1.2529737E-2,1.0308473E-2,-3.313237E-2,-7.614964E-3,2.4796091E-2,-7.858098E-3],"split_indices":[11,7,7,11,11,0,13,0,0,0,0,0,0],"split_type":[0,0,0,0,0,0,0,0,0,0,0,0,0],"sum_hessian":[1.3422322E2,1.20580414E2,1.3642811E1,4.680101E1,7.37794E1,4.5231814E0,9.119629E0,1.940856E1,2.7392448E1,6.3518265E1,1.0261141E1,5.176194E0,3.9434345E0],"tree_param":{"num_deleted":"0","num_feature":"17","num_nodes":"13","size_leaf_vector":"1"}},{"base_weights":[-3.2723883E-1,-8.8786855E-2,-5.2707547E-1,-4.6451896E-1,2.9972225E-1,-6.4990675E-1,-1.705518E-1,-1.1241913E-2,-3.7224654E-2,6.272081E-3,4.0019434E-2,-1.698591E-2,-3.653991E-2,-2.4538387E-2,5.528917E-4],"categories":[],"categories_nodes":[],"categories_segments":[],"categories_sizes":[],"default_left":[0,0,0,0,0,0,0,0,0,0,0,0,0,0,0],"id":50,"left_children":[1,3,5,7,9,11,13,-1,-1,-1,-1,-1,-1,-1,-1],"loss_changes":[6.1178894E0,8.925295E0,2.962574E0,1.9121528E0,2.5346596E0,1.0525417E0,1.1300938E0,0E0,0E0,0E0,0E0,0E0,0E0,0E0,0E0],"parents":[2147483647,0,0,1,1,2,2,3,3,4,4,5,5,6,6],"right_children":[2,4,6,8,10,12,14,-1,-1,-1,-1,-1,-1,-1,-1],"split_conditions":[5.184781E-2,4.4494442E1,6.821157E1,-2.2475855E0,5.4930706E1,0E0,7.827295E1,-1.1241913E-2,-3.7224654E-2,6.272081E-3,4.0019434E-2,-1.698591E-2,-3.653991E-2,-2.4538387E-2,5.528917E-4],"split_indices":[7,12,12,7,12,14,10,0,0,0,0,0,0,0,0],"split_type":[0,0,0,0,0,0,0,0,0,0,0,0,0,0,0],"sum_hessian":[1.2837044E2,5.9188717E1,6.9181725E1,2.9989676E1,2.9199041E1,5.084236E1,1.8339363E1,1.7128958E1,1.2860718E1,2.2587086E1,6.611954E0,1.1591787E1,3.9250572E1,6.020911E0,1.2318452E1],"tree_param":{"num_deleted":"0","num_feature":"17","num_nodes":"15","size_leaf_vector":"1"}},{"base_weights":[-3.0132067E-1,-1.2904619E-1,-4.343036E-1,-4.6737707E-1,2.5486863E-1,-5.749062E-1,-6.678138E-2,-3.4925275E-2,-4.717261E-3,2.874608E-3,3.6096986E-2,-3.2810472E-2,-1.3865449E-2,9.441275E-3,-2.6375799E-2],"categories":[],"categories_nodes":[],"categories_segments":[],"categories_sizes":[],"default_left":[0,0,0,0,0,0,0,0,0,0,0,0,0,0,0],"id":51,"left_children":[1,3,5,7,9,11,13,-1,-1,-1,-1,-1,-1,-1,-1],"loss_changes":[2.8455162E0,7.470649E0,3.6333303E0,2.5584068E0,2.462348E0,1.0583401E0,2.5483239E0,0E0,0E0,0E0,0E0,0E0,0E0,0E0,0E0],"parents":[2147483647,0,0,1,1,2,2,3,3,4,4,5,5,6,6],"right_children":[2,4,6,8,10,12,14,-1,-1,-1,-1,-1,-1,-1,-1],"split_conditions":[5.184781E-2,4.4651997E1,6.821157E1,5.911447E0,5.4930706E1,6.676999E0,7.379712E1,-3.4925275E-2,-4.717261E-3,2.874608E-3,3.6096986E-2,-3.2810472E-2,-1.3865449E-2,9.441275E-3,-2.6375799E-2],"split_indices":[7,12,12,15,12,15,12,0,0,0,0,0,0,0,0],"split_type":[0,0,0,0,0,0,0,0,0,0,0,0,0,0,0],"sum_hessian":[1.2565277E2,5.559801E1,7.0054756E1,2.9437958E1,2.6160055E1,5.0261864E1,1.9792894E1,1.7637411E1,1.1800547E1,1.9178593E1,6.981463E0,3.8530376E1,1.1731487E1,1.3109921E1,6.6829734E0],"tree_param":{"num_deleted":"0","num_feature":"17","num_nodes":"15","size_leaf_vector":"1"}},{"base_weights":[-2.9519215E-1,-3.785464E-1,4.0398988E-1,-1.3340245E-1,-6.1685425E-1,5.9491026E-1,-5.890093E-2,2.8864867E-3,-2.5145343E-2,-4.5116972E-2,-2.118854E-2,1.1611862E-2,4.47995E-2,-3.4445193E-2,2.9739324E-2],"categories":[],"categories_nodes":[],"categories_segments":[],"categories_sizes":[],"default_left":[0,0,0,0,0,0,0,0,0,0,0,0,0,0,0],"id":52,"left_children":[1,3,5,7,9,11,13,-1,-1,-1,-1,-1,-1,-1,-1],"loss_changes":[7.5438547E0,6.5673923E0,1.2716012E0,4.0817404E0,2.783945E0,8.834567E-1,2.4671373E0,0E0,0E0,0E0,0E0,0E0,0E0,0E0,0E0],"parents":[2147483647,0,0,1,1,2,2,3,3,4,4,5,5,6,6],"right_children":[2,4,6,8,10,12,14,-1,-1,-1,-1,-1,-1,-1,-1],"split_conditions":[1.8184158E2,1.07757404E-1,1.2319841E2,1.2868083E2,2.1905947E0,2.5179281E0,4.5517797E0,2.8864867E-3,-2.5145343E-2,-4.5116972E-2,-2.118854E-2,1.1611862E-2,4.47995E-2,-3.4445193E-2,2.9739324E-2],"split_indices":[11,7,10,10,3,3,3,0,0,0,0,0,0,0,0],"split_type":[0,0,0,0,0,0,0,0,0,0,0,0,0,0,0],"sum_hessian":[1.2581806E2,1.1282591E2,1.2992152E1,5.6384144E1,5.644177E1,8.996371E0,3.9957802E0,3.7717773E1,1.866637E1,2.1289982E1,3.5151787E1,4.8842616E0,4.1121097E0,2.007318E0,1.9884622E0],"tree_param":{"num_deleted":"0","num_feature":"17","num_nodes":"15","size_leaf_vector":"1"}},{"base_weights":[-2.7874655E-1,-5.0702084E-2,8.600262E-2],"categories":[],"categories_nodes":[],"categories_segments":[],"categories_sizes":[],"default_left":[0,0,0],"id":53,"left_children":[1,-1,-1],"loss_changes":[1.8701826E2,0E0,0E0],"parents":[2147483647,0,0],"right_children":[2,-1,-1],"split_conditions":[3.6933124E0,-5.0702084E-2,8.600262E-2],"split_indices":[2,0,0],"split_type":[0,0,0],"sum_hessian":[1.2506189E2,9.1788475E1,3.327341E1],"tree_param":{"num_deleted":"0","num_feature":"17","num_nodes":"3","size_leaf_vector":"1"}},{"base_weights":[-2.6321736E-1,-3.3914456E-1,6.646143E-1,-4.2285886E-1,-4.1070227E-2,6.17311E-3,7.2830933E-1,-3.611524E-2,-1.0415526E-2,-2.5866589E-2,1.6980099E-2,4.0465754E-2,1.1168697E-2],"categories":[],"categories_nodes":[],"categories_segments":[],"categories_sizes":[],"default_left":[0,0,0,0,0,0,0,0,0,0,0,0,0],"id":54,"left_children":[1,3,5,7,9,-1,11,-1,-1,-1,-1,-1,-1],"loss_changes":[8.751365E0,2.790677E0,2.3727894E-1,5.4871206E0,4.8500476E0,0E0,1.582551E-1,0E0,0E0,0E0,0E0,0E0,0E0],"parents":[2147483647,0,0,1,1,2,2,3,3,4,4,6,6],"right_children":[2,4,6,8,10,-1,12,-1,-1,-1,-1,-1,-1],"split_conditions":[2.1266814E2,7.260642E0,6.467427E1,5.911447E0,4.53543E1,6.17311E-3,7.4933975E1,-3.611524E-2,-1.0415526E-2,-2.5866589E-2,1.6980099E-2,4.0465754E-2,1.1168697E-2],"split_indices":[11,13,12,15,12,0,12,0,0,0,0,0,0],"split_type":[0,0,0,0,0,0,0,0,0,0,0,0,0],"sum_hessian":[1.2002553E2,1.11532936E2,8.492592E0,8.675041E1,2.4782528E1,1.2037635E0,7.288828E0,3.5222958E1,5.152745E1,1.0849566E1,1.3932961E1,5.761684E0,1.5271442E0],"tree_param":{"num_deleted":"0","num_feature":"17","num_nodes":"13","size_leaf_vector":"1"}},{"base_weights":[-2.4050644E-1,-7.5775105E-1,-1.1066717E-1,-4.6170797E-2,1.3834602E-1,7.9472706E-2,-3.6483768E-1,-2.744717E-2,2.6701614E-2,-1.6380312E-2,1.1494655E-2,-3.2586675E-2,1.0260811E-2],"categories":[],"categories_nodes":[],"categories_segments":[],"categories_sizes":[],"default_left":[0,0,0,0,0,0,0,0,0,0,0,0,0],"id":55,"left_children":[1,3,5,-1,7,9,11,-1,-1,-1,-1,-1,-1],"loss_changes":[7.8641562E0,3.627594E0,4.65742E0,0E0,1.5300311E0,3.480336E0,6.865885E0,0E0,0E0,0E0,0E0,0E0,0E0],"parents":[2147483647,0,0,1,1,2,2,4,4,5,5,6,6],"right_children":[2,4,6,-1,8,10,12,-1,-1,-1,-1,-1,-1],"split_conditions":[-6.4510713E0,1.8834737E2,5.207946E-1,-4.6170797E-2,-8.50689E0,-9.998562E1,1.4070172E2,-2.744717E-2,2.6701614E-2,-1.6380312E-2,1.1494655E-2,-3.2586675E-2,1.0260811E-2],"split_indices":[4,11,7,0,4,11,11,0,0,0,0,0,0],"split_type":[0,0,0,0,0,0,0,0,0,0,0,0,0],"sum_hessian":[1.1734682E2,2.257561E1,9.47712E1,1.9027445E1,3.5481632E0,5.4607643E1,4.0163563E1,1.1548758E0,2.3932874E0,1.4416013E1,4.019163E1,2.6622002E1,1.3541561E1],"tree_param":{"num_deleted":"0","num_feature":"17","num_nodes":"13","size_leaf_vector":"1"}},{"base_weights":[-1.9244525E-1,-7.925186E-1,-5.971119E-2,-4.5828864E-2,-1.4998077E-2,-1.3116974E-1,5.590217E-1,-2.937082E-2,2.4534443E-2,-1.25713395E-2,8.536426E-3,1.14502935E-2,3.28541E-2],"categories":[],"categories_nodes":[],"categories_segments":[],"categories_sizes":[],"default_left":[0,0,0,0,0,0,0,0,0,0,0,0,0],"id":56,"left_children":[1,3,5,-1,7,9,11,-1,-1,-1,-1,-1,-1],"loss_changes":[9.6201315E0,2.0989838E0,4.5155187E0,0E0,1.454935E0,3.3423092E0,1.9230461E-1,0E0,0E0,0E0,0E0,0E0,0E0],"parents":[2147483647,0,0,1,1,2,2,4,4,5,5,6,6],"right_children":[2,4,6,-1,8,10,12,-1,-1,-1,-1,-1,-1],"split_conditions":[-6.4510713E0,1.8834737E2,1.8444737E2,-4.5828864E-2,-7.7577868E0,-2.6769605E0,-5.110529E0,-2.937082E-2,2.4534443E-2,-1.25713395E-2,8.536426E-3,1.14502935E-2,3.28541E-2],"split_indices":[4,11,11,0,4,4,4,0,0,0,0,0,0],"split_type":[0,0,0,0,0,0,0,0,0,0,0,0,0],"sum_hessian":[1.2037392E2,2.0903082E1,9.947083E1,1.787255E1,3.0305333E0,8.98786E1,9.592234E0,1.345668E0,1.6848654E0,6.4394936E1,2.5483667E1,2.9613497E0,6.6308837E0],"tree_param":{"num_deleted":"0","num_feature":"17","num_nodes":"13","size_leaf_vector":"1"}},{"base_weights":[-2.4956134E-1,-5.056129E-2,8.404452E-2],"categories":[],"categories_nodes":[],"categories_segments":[],"categories_sizes":[],"default_left":[0,0,0],"id":57,"left_children":[1,-1,-1],"loss_changes":[1.7236372E2,0E0,0E0],"parents":[2147483647,0,0],"right_children":[2,-1,-1],"split_conditions":[3.6933124E0,-5.056129E-2,8.404452E-2],"split_indices":[2,0,0],"split_type":[0,0,0],"sum_hessian":[1.1506978E2,8.285522E1,3.221456E1],"tree_param":{"num_deleted":"0","num_feature":"17","num_nodes":"3","size_leaf_vector":"1"}},{"base_weights":[-2.2912388E-1,-8.662336E-1,3.587412E-3,-4.845977E-2,-4.8481402E-1,-4.1293725E-1,2.145998E-1,-4.0919133E-2,1.3897301E-3,-3.8676996E-2,4.9782434E-4,4.1239526E-2,-8.473924E-3],"categories":[],"categories_nodes":[],"categories_segments":[],"categories_sizes":[],"default_left":[0,0,0,0,0,0,0,0,0,0,0,0,0],"id":58,"left_children":[1,3,5,-1,7,9,11,-1,-1,-1,-1,-1,-1],"loss_changes":[1.6486446E1,6.983795E-1,7.3333993E0,0E0,1.4461168E0,4.286591E0,1.3116226E1,0E0,0E0,0E0,0E0,0E0,0E0],"parents":[2147483647,0,0,1,1,2,2,4,4,5,5,6,6],"right_children":[2,4,6,-1,8,10,12,-1,-1,-1,-1,-1,-1],"split_conditions":[4.22538E7,3.4186E7,6.7432284E9,-4.845977E-2,2.2747633E0,1.15664E8,1.2328948E10,-4.0919133E-2,1.3897301E-3,-3.8676996E-2,4.9782434E-4,4.1239526E-2,-8.473924E-3],"split_indices":[1,1,5,0,14,1,5,0,0,0,0,0,0],"split_type":[0,0,0,0,0,0,0,0,0,0,0,0,0],"sum_hessian":[1.1017661E2,2.8748234E1,8.1428375E1,2.1423954E1,7.324281E0,2.7058916E1,5.4369465E1,4.075642E0,3.2486389E0,1.4157562E1,1.2901353E1,2.0559242E1,3.3810223E1],"tree_param":{"num_deleted":"0","num_feature":"17","num_nodes":"13","size_leaf_vector":"1"}},{"base_weights":[-2.0495047E-1,1.2551556E-2,-3.4082502E-1,-4.4510615E-1,9.17522E-2,-1.5097015E-1,-5.1303613E-1,-5.5189556E-3,-3.647157E-2,-1.9522145E-2,6.845977E-3,-3.0340482E-2,5.575344E-4,-2.7909478E-2,9.158421E-4],"categories":[],"categories_nodes":[],"categories_segments":[],"categories_sizes":[],"default_left":[0,0,0,0,0,0,0,0,0,0,0,0,0,0,0],"id":59,"left_children":[1,3,5,7,9,11,13,-1,-1,-1,-1,-1,-1,-1,-1],"loss_changes":[3.328413E0,1.6434414E0,2.1872349E0,5.565225E-1,8.9240575E-1,2.5462055E0,8.716526E-1,0E0,0E0,0E0,0E0,0E0,0E0,0E0,0E0],"parents":[2147483647,0,0,1,1,2,2,3,3,4,4,5,5,6,6],"right_children":[2,4,6,8,10,12,14,-1,-1,-1,-1,-1,-1,-1,-1],"split_conditions":[-5.583206E-1,-1.2519157E-1,8.802667E3,-1.7185359E-1,1.9102684E0,3.0818649E-2,1.9309853E10,-5.5189556E-3,-3.647157E-2,-1.9522145E-2,6.845977E-3,-3.0340482E-2,5.575344E-4,-2.7909478E-2,9.158421E-4],"split_indices":[7,6,16,6,13,6,5,0,0,0,0,0,0,0,0],"split_type":[0,0,0,0,0,0,0,0,0,0,0,0,0,0,0],"sum_hessian":[1.1148049E2,4.3213634E1,6.826686E1,5.693573E0,3.752006E1,3.3362682E1,3.490418E1,3.2526023E0,2.4409704E0,2.5587819E0,3.4961277E1,8.033035E0,2.5329647E1,3.2123844E1,2.7803357E0],"tree_param":{"num_deleted":"0","num_feature":"17","num_nodes":"15","size_leaf_vector":"1"}},{"base_weights":[-2.0969574E-1,-8.396802E-1,1.1971333E-2,-8.8137984E-1,3.9602523E-3,-3.665732E-1,1.7191878E-1,-4.77195E-3,-4.6272874E-2,-2.7437076E-2,3.141865E-2,9.3428785E-4,2.1296924E-2],"categories":[],"categories_nodes":[],"categories_segments":[],"categories_sizes":[],"default_left":[0,0,0,0,0,0,0,0,0,0,0,0,0],"id":60,"left_children":[1,3,5,7,-1,9,11,-1,-1,-1,-1,-1,-1],"loss_changes":[1.5474598E1,1.174778E0,5.0825653E0,8.701649E-1,0E0,4.8658185E0,2.2869794E0,0E0,0E0,0E0,0E0,0E0,0E0],"parents":[2147483647,0,0,1,1,2,2,3,3,5,5,6,6],"right_children":[2,4,6,8,-1,10,12,-1,-1,-1,-1,-1,-1],"split_conditions":[4.22538E7,8.859138E0,2.4579608E0,1.1544598E1,3.9602523E-3,1.82788E8,9.9878E7,-4.77195E-3,-4.6272874E-2,-2.7437076E-2,3.141865E-2,9.3428785E-4,2.1296924E-2],"split_indices":[1,3,3,8,0,1,1,0,0,0,0,0,0],"split_type":[0,0,0,0,0,0,0,0,0,0,0,0,0],"sum_hessian":[1.0974041E2,2.7837467E1,8.190295E1,2.6668068E1,1.1693996E0,2.3943792E1,5.7959152E1,1.58428E0,2.5083788E1,2.0617357E1,3.3264353E0,3.682105E1,2.1138103E1],"tree_param":{"num_deleted":"0","num_feature":"17","num_nodes":"13","size_leaf_vector":"1"}},{"base_weights":[-2.203924E-1,-9.1440916E-1,-1.602615E-2,-1.3479605E-2,-4.7032118E-2,-4.032499E-1,1.719703E-1,-3.3081766E-2,2.3800043E-2,3.569139E-2,-9.654151E-3],"categories":[],"categories_nodes":[],"categories_segments":[],"categories_sizes":[],"default_left":[0,0,0,0,0,0,0,0,0,0,0],"id":61,"left_children":[1,3,5,-1,-1,7,9,-1,-1,-1,-1],"loss_changes":[1.5335976E1,1.6257668E-1,6.229934E0,0E0,0E0,6.6664357E0,1.1545353E1,0E0,0E0,0E0,0E0],"parents":[2147483647,0,0,1,1,2,2,5,5,6,6],"right_children":[2,4,6,-1,-1,8,10,-1,-1,-1,-1],"split_conditions":[3.92367E7,1.1544598E1,6.7432284E9,-1.3479605E-2,-4.7032118E-2,1.82788E8,1.214066E10,-3.3081766E-2,2.3800043E-2,3.569139E-2,-9.654151E-3],"split_indices":[1,8,5,0,0,1,5,0,0,0,0],"split_type":[0,0,0,0,0,0,0,0,0,0,0],"sum_hessian":[1.0722984E2,2.3602537E1,8.362731E1,1.3635262E0,2.2239012E1,2.69573E1,5.667001E1,2.1025915E1,5.931386E0,2.2426458E1,3.424355E1],"tree_param":{"num_deleted":"0","num_feature":"17","num_nodes":"11","size_leaf_vector":"1"}},{"base_weights":[-1.9445682E-1,-4.7947418E-2,-2.8872665E-2,-5.3595006E-1,8.8137284E-2,-3.396392E-2,3.0481264E-2,-2.0960584E-2,1.1839047E-2],"categories":[],"categories_nodes":[],"categories_segments":[],"categories_sizes":[],"default_left":[0,0,0,0,0,0,0,0,0],"id":62,"left_children":[1,-1,3,5,7,-1,-1,-1,-1],"loss_changes":[1.3466625E1,0E0,5.3073044E0,3.166442E0,5.596231E0,0E0,0E0,0E0,0E0],"parents":[2147483647,0,0,2,2,3,3,4,4],"right_children":[2,-1,4,6,8,-1,-1,-1,-1],"split_conditions":[3.4186E7,-4.7947418E-2,1.6125687E0,2.248052E8,4.2781975E1,-3.396392E-2,3.0481264E-2,-2.0960584E-2,1.1839047E-2],"split_indices":[1,0,3,1,12,0,0,0,0],"split_type":[0,0,0,0,0,0,0,0,0],"sum_hessian":[1.0560053E2,1.7947367E1,8.765316E1,1.576278E1,7.189038E1,1.437171E1,1.39107E0,1.5877437E1,5.6012947E1],"tree_param":{"num_deleted":"0","num_feature":"17","num_nodes":"9","size_leaf_vector":"1"}},{"base_weights":[-2.1503772E-1,-1.561076E-2,-3.3636853E-1,-3.2535103E-1,4.0090412E-1,-7.471012E-1,-1.820557E-1,-5.0232657E-3,-3.4757394E-2,2.4213005E-2,-1.1711501E-2,-4.1873895E-2,-1.6060535E-2,2.631705E-2,-1.4265368E-2],"categories":[],"categories_nodes":[],"categories_segments":[],"categories_sizes":[],"default_left":[0,0,0,0,0,0,0,0,0,0,0,0,0,0,0],"id":63,"left_children":[1,3,5,7,9,11,13,-1,-1,-1,-1,-1,-1,-1,-1],"loss_changes":[2.514319E0,5.3472443E0,3.96426E0,1.9046736E0,1.0501802E0,3.9861584E-1,3.6864223E0,0E0,0E0,0E0,0E0,0E0,0E0,0E0,0E0],"parents":[2147483647,0,0,1,1,2,2,3,3,4,4,5,5,6,6],"right_children":[2,4,6,8,10,12,14,-1,-1,-1,-1,-1,-1,-1,-1],"split_conditions":[-5.583206E-1,4.4995052E1,5.470364E1,1.2441783E2,1.9463815E10,1.3348833E0,2.816231E-1,-5.0232657E-3,-3.4757394E-2,2.4213005E-2,-1.1711501E-2,-4.1873895E-2,-1.6060535E-2,2.631705E-2,-1.4265368E-2],"split_indices":[7,12,12,10,5,7,7,0,0,0,0,0,0,0,0],"split_type":[0,0,0,0,0,0,0,0,0,0,0,0,0,0,0],"sum_hessian":[1.0312894E2,3.9436802E1,6.369214E1,2.2742943E1,1.669386E1,1.6345102E1,4.7347034E1,1.49332285E1,7.8097134E0,1.4967102E1,1.7267579E0,1.2686524E1,3.6585784E0,5.5018535E0,4.184518E1],"tree_param":{"num_deleted":"0","num_feature":"17","num_nodes":"15","size_leaf_vector":"1"}},{"base_weights":[-2.0471115E-1,-5.0362658E-2,7.9935335E-2],"categories":[],"categories_nodes":[],"categories_segments":[],"categories_sizes":[],"default_left":[0,0,0],"id":64,"left_children":[1,-1,-1],"loss_changes":[1.5154015E2,0E0,0E0],"parents":[2147483647,0,0],"right_children":[2,-1,-1],"split_conditions":[3.6933124E0,-5.0362658E-2,7.9935335E-2],"split_indices":[2,0,0],"split_type":[0,0,0],"sum_hessian":[1.0259145E2,7.130249E1,3.1288963E1],"tree_param":{"num_deleted":"0","num_feature":"17","num_nodes":"3","size_leaf_vector":"1"}},{"base_weights":[-2.0496969E-1,-8.332866E-1,-6.490317E-3,-4.7693826E-2,-4.3924022E-1,-9.5620796E-2,5.77884E-1,8.854694E-3,-2.8141482E-2,-1.3078839E-2,8.800419E-3,1.231974E-2,3.38686E-2],"categories":[],"categories_nodes":[],"categories_segments":[],"categories_sizes":[],"default_left":[0,0,0,0,0,0,0,0,0,0,0,0,0],"id":65,"left_children":[1,3,5,-1,7,9,11,-1,-1,-1,-1,-1,-1],"loss_changes":[1.2553146E1,7.2938156E-1,4.0938063E0,0E0,6.722083E-1,3.1174057E0,1.761837E-1,0E0,0E0,0E0,0E0,0E0,0E0],"parents":[2147483647,0,0,1,1,2,2,4,4,5,5,6,6],"right_children":[2,4,6,-1,8,10,12,-1,-1,-1,-1,-1,-1],"split_conditions":[4.22538E7,3.4186E7,1.8444737E2,-4.7693826E-2,1.3343316E1,9.9878E7,2.1266814E2,8.854694E-3,-2.8141482E-2,-1.3078839E-2,8.800419E-3,1.231974E-2,3.38686E-2],"split_indices":[1,1,11,0,8,1,11,0,0,0,0,0,0],"split_type":[0,0,0,0,0,0,0,0,0,0,0,0,0],"sum_hessian":[9.9703735E1,2.3166925E1,7.653681E1,1.665062E1,6.516307E0,6.713374E1,9.403064E0,1.0161074E0,5.5001993E0,4.169597E1,2.5437778E1,2.9731843E0,6.42988E0],"tree_param":{"num_deleted":"0","num_feature":"17","num_nodes":"13","size_leaf_vector":"1"}},{"base_weights":[-1.8594255E-1,-4.7546178E-2,-2.9299712E-2,-4.1963015E-2,2.7380636E-2,-6.8963603E-3,1.597964E-2],"categories":[],"categories_nodes":[],"categories_segments":[],"categories_sizes":[],"default_left":[0,0,0,0,0,0,0],"id":66,"left_children":[1,-1,3,-1,5,-1,-1],"loss_changes":[1.1931889E1,0E0,3.8735926E0,0E0,3.8774638E0,0E0,0E0],"parents":[2147483647,0,0,2,2,4,4],"right_children":[2,-1,4,-1,6,-1,-1],"split_conditions":[3.4186E7,-4.7546178E-2,3.468522E1,-4.1963015E-2,9.9878E7,-6.8963603E-3,1.597964E-2],"split_indices":[1,0,12,0,1,0,0],"split_type":[0,0,0,0,0,0,0],"sum_hessian":[9.8806984E1,1.5931798E1,8.287519E1,4.5172276E0,7.835796E1,5.0383446E1,2.7974516E1],"tree_param":{"num_deleted":"0","num_feature":"17","num_nodes":"7","size_leaf_vector":"1"}},{"base_weights":[-1.5494348E-1,-7.6057607E-1,-3.7441723E-2,-4.36687E-2,6.95901E-3,-4.2372428E-2,2.1537868E-2,-3.3217345E-3,1.8670844E-2],"categories":[],"categories_nodes":[],"categories_segments":[],"categories_sizes":[],"default_left":[0,0,0,0,0,0,0,0,0],"id":67,"left_children":[1,3,5,-1,-1,-1,7,-1,-1],"loss_changes":[7.118404E0,1.7725058E0,4.086811E0,0E0,0E0,0E0,2.5123425E0,0E0,0E0],"parents":[2147483647,0,0,1,1,2,2,6,6],"right_children":[2,4,6,-1,-1,-1,8,-1,-1],"split_conditions":[-6.4510713E0,7.001239E1,3.468522E1,-4.36687E-2,6.95901E-3,-4.2372428E-2,-2.39361E0,-3.3217345E-3,1.8670844E-2],"split_indices":[4,12,12,0,0,0,4,0,0],"split_type":[0,0,0,0,0,0,0,0,0],"sum_hessian":[9.942987E1,1.5267025E1,8.416284E1,1.3592343E1,1.6746821E0,4.804933E0,7.935791E1,6.413488E1,1.5223031E1],"tree_param":{"num_deleted":"0","num_feature":"17","num_nodes":"9","size_leaf_vector":"1"}},{"base_weights":[-1.6419777E-1,-5.0253015E-2,7.8323945E-2],"categories":[],"categories_nodes":[],"categories_segments":[],"categories_sizes":[],"default_left":[0,0,0],"id":68,"left_children":[1,-1,-1],"loss_changes":[1.4483917E2,0E0,0E0],"parents":[2147483647,0,0],"right_children":[2,-1,-1],"split_conditions":[3.6933124E0,-5.0253015E-2,7.8323945E-2],"split_indices":[2,0,0],"split_type":[0,0,0],"sum_hessian":[9.744609E1,6.5864555E1,3.1581533E1],"tree_param":{"num_deleted":"0","num_feature":"17","num_nodes":"3","size_leaf_vector":"1"}},{"base_weights":[-1.7516282E-1,-4.475821E-1,-7.593983E-2,-9.567048E-2,-5.434717E-1,-3.463496E-2,-2.8267223E-2,-1.199938E-2,1.7031347E-2,-1.9254861E-2,-3.6190737E-2,2.9752601E-3,-1.771854E-2],"categories":[],"categories_nodes":[],"categories_segments":[],"categories_sizes":[],"default_left":[0,0,0,0,0,0,0,0,0,0,0,0,0],"id":69,"left_children":[1,3,5,7,9,-1,11,-1,-1,-1,-1,-1,-1],"loss_changes":[2.4848604E0,7.806568E-1,2.024226E0,4.908572E-1,2.6900625E-1,0E0,1.8977882E0,0E0,0E0,0E0,0E0,0E0,0E0],"parents":[2147483647,0,0,1,1,2,2,3,3,4,4,6,6],"right_children":[2,4,6,8,10,-1,12,-1,-1,-1,-1,-1,-1],"split_conditions":[6.7432284E9,2.4766364E9,3.5159218E1,2.3069696E9,8.802667E3,-3.463496E-2,9.198583E3,-1.199938E-2,1.7031347E-2,-1.9254861E-2,-3.6190737E-2,2.9752601E-3,-1.771854E-2],"split_indices":[5,5,12,5,16,0,16,0,0,0,0,0,0],"split_type":[0,0,0,0,0,0,0,0,0,0,0,0,0],"sum_hessian":[9.218631E1,2.3675032E1,6.851128E1,5.497414E0,1.8177616E1,3.9448504E0,6.456643E1,4.469088E0,1.0283263E0,1.1347649E1,6.829968E0,5.1517704E1,1.3048724E1],"tree_param":{"num_deleted":"0","num_feature":"17","num_nodes":"13","size_leaf_vector":"1"}},{"base_weights":[-1.3768908E-1,-7.014711E-1,-2.3449795E-2,-1.12715766E-1,-4.0597863E-2,-3.7605307E-1,1.2326544E-2,-2.5298417E-2,1.1032644E-2,-3.6037374E-2,1.8055456E-2,3.1169006E-3,-1.0980728E-2],"categories":[],"categories_nodes":[],"categories_segments":[],"categories_sizes":[],"default_left":[0,0,0,0,0,0,0,0,0,0,0,0,0],"id":70,"left_children":[1,3,5,7,-1,9,11,-1,-1,-1,-1,-1,-1],"loss_changes":[6.1324997E0,9.5260763E-1,1.0191252E0,5.9637165E-1,0E0,2.1506908E0,8.7184227E-1,0E0,0E0,0E0,0E0,0E0,0E0],"parents":[2147483647,0,0,1,1,2,2,3,3,5,5,6,6],"right_children":[2,4,6,8,-1,10,12,-1,-1,-1,-1,-1,-1],"split_conditions":[-6.336797E0,1.9102684E0,-1.2519157E-1,8.255453E-2,-4.0597863E-2,-2.39361E0,9.198583E3,-2.5298417E-2,1.1032644E-2,-3.6037374E-2,1.8055456E-2,3.1169006E-3,-1.0980728E-2],"split_indices":[4,13,6,6,0,4,16,0,0,0,0,0,0],"split_type":[0,0,0,0,0,0,0,0,0,0,0,0,0],"sum_hessian":[9.44716E1,1.505135E1,7.942025E1,2.6974478E0,1.2353902E1,6.439805E0,7.2980446E1,1.0000325E0,1.6974154E0,4.4031672E0,2.0366378E0,6.0637035E1,1.234341E1],"tree_param":{"num_deleted":"0","num_feature":"17","num_nodes":"13","size_leaf_vector":"1"}},{"base_weights":[-1.7168236E-1,-6.527161E-1,-1.3441632E-2,-8.09828E-1,-3.5519725E-1,-5.5132604E-1,3.7913296E-2,-4.1788083E-2,-1.1823966E-2,4.7393064E-3,-3.0278875E-2,-5.743213E-3,-3.8015325E-2,9.183435E-3,-9.650992E-3],"categories":[],"categories_nodes":[],"categories_segments":[],"categories_sizes":[],"default_left":[0,0,0,0,0,0,0,0,0,0,0,0,0,0,0],"id":71,"left_children":[1,3,5,7,9,11,13,-1,-1,-1,-1,-1,-1,-1,-1],"loss_changes":[6.9905176E0,7.753029E-1,1.9603653E0,1.2014389E-2,1.1434864E0,4.7668874E-1,2.2242851E0,0E0,0E0,0E0,0E0,0E0,0E0,0E0,0E0],"parents":[2147483647,0,0,1,1,2,2,3,3,4,4,5,5,6,6],"right_children":[2,4,6,8,10,12,14,-1,-1,-1,-1,-1,-1,-1,-1],"split_conditions":[-5.4182043E0,-6.4510713E0,1.2342978E0,2.467169E2,-6.1059203E0,4.4350513E1,1.2868083E2,-4.1788083E-2,-1.1823966E-2,4.7393064E-3,-3.0278875E-2,-5.743213E-3,-3.8015325E-2,9.183435E-3,-9.650992E-3],"split_indices":[4,4,3,10,4,10,10,0,0,0,0,0,0,0,0],"split_type":[0,0,0,0,0,0,0,0,0,0,0,0,0,0,0],"sum_hessian":[9.0951805E1,2.1739964E1,6.921184E1,1.310017E1,8.639794E0,5.183629E0,6.402821E1,1.2095388E1,1.0047814E0,3.3108912E0,5.328903E0,2.1800892E0,3.0035396E0,3.937869E1,2.4649525E1],"tree_param":{"num_deleted":"0","num_feature":"17","num_nodes":"15","size_leaf_vector":"1"}},{"base_weights":[-1.5992191E-1,-2.197882E-1,2.6428208E-2,-6.337752E-1,-1.7173292E-1,-3.8326446E-2,-8.621833E-3,-4.9092923E-3,-2.173107E-2],"categories":[],"categories_nodes":[],"categories_segments":[],"categories_sizes":[],"default_left":[0,0,0,0,0,0,0,0,0],"id":72,"left_children":[1,3,-1,5,7,-1,-1,-1,-1],"loss_changes":[3.906416E0,1.5882974E0,0E0,3.8845372E-1,1.4617007E0,0E0,0E0,0E0,0E0],"parents":[2147483647,0,0,1,1,3,3,4,4],"right_children":[2,4,-1,6,8,-1,-1,-1,-1],"split_conditions":[2.1266814E2,5.0347E1,2.6428208E-2,5.911447E0,9.198583E3,-3.8326446E-2,-8.621833E-3,-4.9092923E-3,-2.173107E-2],"split_indices":[11,0,0,15,16,0,0,0,0],"split_type":[0,0,0,0,0,0,0,0,0],"sum_hessian":[9.095802E1,8.4307915E1,6.6501036E0,7.500875E0,7.6807045E1,5.3110466E0,2.1898282E0,6.108974E1,1.5717301E1],"tree_param":{"num_deleted":"0","num_feature":"17","num_nodes":"9","size_leaf_vector":"1"}},{"base_weights":[-1.7443359E-1,-8.769487E-1,-9.987487E-4,-8.564746E-3,-4.5555614E-2,-1.1703971E-1,2.6656768E-1,-8.939788E-3,2.807724E-2,-4.582207E-3,2.2479486E-2],"categories":[],"categories_nodes":[],"categories_segments":[],"categories_sizes":[],"default_left":[0,0,0,0,0,0,0,0,0,0,0],"id":73,"left_children":[1,3,5,-1,-1,7,9,-1,-1,-1,-1],"loss_changes":[1.0940132E1,2.725277E-1,2.2983494E0,0E0,0E0,2.263872E0,1.5093265E0,0E0,0E0,0E0,0E0],"parents":[2147483647,0,0,1,1,2,2,5,5,6,6],"right_children":[2,4,6,-1,-1,8,10,-1,-1,-1,-1],"split_conditions":[3.92367E7,1.1728575E1,1.15664E8,-8.564746E-3,-4.5555614E-2,2.1520416E2,7.966163E1,-8.939788E-3,2.807724E-2,-4.582207E-3,2.2479486E-2],"split_indices":[1,8,1,0,0,9,9,0,0,0,0],"split_type":[0,0,0,0,0,0,0,0,0,0,0],"sum_hessian":[8.879772E1,1.6778475E1,7.201925E1,1.0525173E0,1.5725957E1,5.0625874E1,2.1393373E1,4.707796E1,3.5479155E0,7.403152E0,1.3990221E1],"tree_param":{"num_deleted":"0","num_feature":"17","num_nodes":"11","size_leaf_vector":"1"}},{"base_weights":[-1.3815373E-1,-7.202457E-1,-3.2253854E-2,-4.3137502E-2,1.1943359E-2,-4.0416934E-2,1.8738454E-2,1.1800636E-2,-1.1697811E-2],"categories":[],"categories_nodes":[],"categories_segments":[],"categories_sizes":[],"default_left":[0,0,0,0,0,0,0,0,0],"id":74,"left_children":[1,3,5,-1,-1,-1,7,-1,-1],"loss_changes":[5.5596313E0,2.1050482E0,3.0890152E0,0E0,0E0,0E0,4.110525E0,0E0,0E0],"parents":[2147483647,0,0,1,1,2,2,6,6],"right_children":[2,4,6,-1,-1,-1,8,-1,-1],"split_conditions":[-6.336797E0,7.001239E1,3.468522E1,-4.3137502E-2,1.1943359E-2,-4.0416934E-2,3.0823553E-1,1.1800636E-2,-1.1697811E-2],"split_indices":[4,12,12,0,0,0,7,0,0],"split_type":[0,0,0,0,0,0,0,0,0],"sum_hessian":[8.956698E1,1.2893737E1,7.667324E1,1.1313287E1,1.5804497E0,3.8114936E0,7.286175E1,3.9212074E1,3.3649673E1],"tree_param":{"num_deleted":"0","num_feature":"17","num_nodes":"9","size_leaf_vector":"1"}},{"base_weights":[-1.4103663E-1,-4.6723206E-2,-8.070655E-4,-6.165312E-1,7.9538114E-2,-4.33585E-2,8.747072E-3,1.2935263E-2,-9.834347E-3],"categories":[],"categories_nodes":[],"categories_segments":[],"categories_sizes":[],"default_left":[0,0,0,0,0,0,0,0,0],"id":75,"left_children":[1,-1,3,5,7,-1,-1,-1,-1],"loss_changes":[1.00556965E1,0E0,3.8983772E0,1.9560609E0,3.5011172E0,0E0,0E0,0E0,0E0],"parents":[2147483647,0,0,2,2,3,3,4,4],"right_children":[2,-1,4,6,8,-1,-1,-1,-1],"split_conditions":[3.4186E7,-4.6723206E-2,-6.4510713E0,1.8834737E2,3.6862513E-1,-4.33585E-2,8.747072E-3,1.2935263E-2,-9.834347E-3],"split_indices":[1,0,4,11,7,0,0,0,0],"split_type":[0,0,0,0,0,0,0,0,0],"sum_hessian":[8.938532E1,1.2574458E1,7.681087E1,8.09574E0,6.8715126E1,6.0759907E0,2.01975E0,4.1718674E1,2.6996452E1],"tree_param":{"num_deleted":"0","num_feature":"17","num_nodes":"9","size_leaf_vector":"1"}},{"base_weights":[-1.1302834E-1,-5.8878E-1,-4.0729556E-2,-2.3018323E-1,-3.6351245E-2,1.5046322E-1,-2.2682096E-1,-2.4487821E-2,3.0900794E-3,-6.368668E-3,1.4946264E-2,-2.3676809E-2,1.1884614E-2],"categories":[],"categories_nodes":[],"categories_segments":[],"categories_sizes":[],"default_left":[0,0,0,0,0,0,0,0,0,0,0,0,0],"id":76,"left_children":[1,3,5,7,-1,9,11,-1,-1,-1,-1,-1,-1],"loss_changes":[3.0685358E0,4.1695213E-1,2.8492396E0,3.897337E-1,0E0,1.6726307E0,4.753357E0,0E0,0E0,0E0,0E0,0E0,0E0],"parents":[2147483647,0,0,1,1,2,2,3,3,5,5,6,6],"right_children":[2,4,6,8,-1,10,12,-1,-1,-1,-1,-1,-1],"split_conditions":[1.2489864E0,4.4350513E1,1.14607704E2,6.722614E-1,-3.6351245E-2,2.431243E0,5.444269E0,-2.4487821E-2,3.0900794E-3,-6.368668E-3,1.4946264E-2,-2.3676809E-2,1.1884614E-2],"split_indices":[3,10,10,3,0,3,3,0,0,0,0,0,0],"split_type":[0,0,0,0,0,0,0,0,0,0,0,0,0],"sum_hessian":[8.89085E1,1.0786407E1,7.812209E1,3.7428315E0,7.0435762E0,3.8627323E1,3.9494766E1,1.6228182E0,2.1200132E0,1.3501758E1,2.5125565E1,2.5781898E1,1.3712869E1],"tree_param":{"num_deleted":"0","num_feature":"17","num_nodes":"13","size_leaf_vector":"1"}},{"base_weights":[-7.657642E-2,-5.0079353E-2,7.5395875E-2],"categories":[],"categories_nodes":[],"categories_segments":[],"categories_sizes":[],"default_left":[0,0,0],"id":77,"left_children":[1,-1,-1],"loss_changes":[1.3474939E2,0E0,0E0],"parents":[2147483647,0,0],"right_children":[2,-1,-1],"split_conditions":[3.6933124E0,-5.0079353E-2,7.5395875E-2],"split_indices":[2,0,0],"split_type":[0,0,0],"sum_hessian":[8.990637E1,5.69989E1,3.290747E1],"tree_param":{"num_deleted":"0","num_feature":"17","num_nodes":"3","size_leaf_vector":"1"}},{"base_weights":[-1.3704027E-1,-4.998467E-2,7.375095E-2],"categories":[],"categories_nodes":[],"categories_segments":[],"categories_sizes":[],"default_left":[0,0,0],"id":78,"left_children":[1,-1,-1],"loss_changes":[1.1818917E2,0E0,0E0],"parents":[2147483647,0,0],"right_children":[2,-1,-1],"split_conditions":[3.6933124E0,-4.998467E-2,7.375095E-2],"split_indices":[2,0,0],"split_type":[0,0,0],"sum_hessian":[8.2928215E1,5.426795E1,2.8660269E1],"tree_param":{"num_deleted":"0","num_feature":"17","num_nodes":"3","size_leaf_vector":"1"}},{"base_weights":[-1.122973E-1,-4.9925912E-2,7.2960064E-2],"categories":[],"categories_nodes":[],"categories_segments":[],"categories_sizes":[],"default_left":[0,0,0],"id":79,"left_children":[1,-1,-1],"loss_changes":[1.1697272E2,0E0,0E0],"parents":[2147483647,0,0],"right_children":[2,-1,-1],"split_conditions":[3.6933124E0,-4.9925912E-2,7.2960064E-2],"split_indices":[2,0,0],"split_type":[0,0,0],"sum_hessian":[8.194399E1,5.262922E1,2.931478E1],"tree_param":{"num_deleted":"0","num_feature":"17","num_nodes":"3","size_leaf_vector":"1"}},{"base_weights":[-8.7981895E-2,-7.746608E-1,8.596138E-2,-3.4444325E-3,-8.6542356E-1,-2.9959628E-1,2.5912717E-1,-4.636426E-2,-1.3429934E-2,-3.8899515E-2,5.520466E-3,3.4557145E-2,-1.9882778E-3],"categories":[],"categories_nodes":[],"categories_segments":[],"categories_sizes":[],"default_left":[0,0,0,0,0,0,0,0,0,0,0,0,0],"id":80,"left_children":[1,3,5,-1,7,9,11,-1,-1,-1,-1,-1,-1],"loss_changes":[9.5910845E0,9.791794E-1,4.385619E0,0E0,2.7824116E-1,4.0993714E0,5.8462243E0,0E0,0E0,0E0,0E0,0E0,0E0],"parents":[2147483647,0,0,1,1,2,2,4,4,5,5,6,6],"right_children":[2,4,6,-1,8,10,12,-1,-1,-1,-1,-1,-1],"split_conditions":[4.22538E7,-3.9847767E0,6.7432284E9,-3.4444325E-3,3.92367E7,1.15664E8,1.2403785E10,-4.636426E-2,-1.3429934E-2,-3.8899515E-2,5.520466E-3,3.4557145E-2,-1.9882778E-3],"split_indices":[1,7,5,0,1,1,5,0,0,0,0,0,0],"split_type":[0,0,0,0,0,0,0,0,0,0,0,0,0],"sum_hessian":[7.874079E1,1.5216564E1,6.3524223E1,1.9343141E0,1.328225E1,1.9461851E1,4.4062374E1,1.1533131E1,1.7491198E0,8.567635E0,1.0894217E1,1.7481907E1,2.6580465E1],"tree_param":{"num_deleted":"0","num_feature":"17","num_nodes":"13","size_leaf_vector":"1"}},{"base_weights":[-8.204123E-2,-8.441838E-1,7.703942E-2,-4.576138E-2,-4.1023737E-1,-6.1584096E-2,2.8292912E-1,-2.9726803E-2,-1.9539332E-3,5.1345485E-3,-1.5523582E-2,9.46041E-3,2.3742616E-2],"categories":[],"categories_nodes":[],"categories_segments":[],"categories_sizes":[],"default_left":[0,0,0,0,0,0,0,0,0,0,0,0,0],"id":81,"left_children":[1,3,5,-1,7,9,11,-1,-1,-1,-1,-1,-1],"loss_changes":[9.642124E0,4.764366E-2,1.908767E0,0E0,2.3281199E-1,1.6846666E0,3.9298558E-1,0E0,0E0,0E0,0E0,0E0,0E0],"parents":[2147483647,0,0,1,1,2,2,4,4,5,5,6,6],"right_children":[2,4,6,-1,8,10,12,-1,-1,-1,-1,-1,-1],"split_conditions":[3.92367E7,3.4186E7,9.9878E7,-4.576138E-2,2.2747633E0,1.27544685E2,1.82788E8,-2.9726803E-2,-1.9539332E-3,5.1345485E-3,-1.5523582E-2,9.46041E-3,2.3742616E-2],"split_indices":[1,1,1,0,14,10,1,0,0,0,0,0,0],"split_type":[0,0,0,0,0,0,0,0,0,0,0,0,0],"sum_hessian":[7.799142E1,1.2724193E1,6.526722E1,9.981058E0,2.743135E0,3.942419E1,2.5843033E1,1.4308227E0,1.3123122E0,2.4102825E1,1.5321365E1,1.8698122E1,7.1449094E0],"tree_param":{"num_deleted":"0","num_feature":"17","num_nodes":"13","size_leaf_vector":"1"}},{"base_weights":[-1.0575886E-1,-6.299435E-1,-1.4482389E-2,-7.4798274E-1,6.1803465E-3,-4.111336E-1,1.0090124E-1,-4.358314E-2,-1.4101635E-2,-2.9785875E-2,6.890426E-3,1.8963095E-2,-7.1221255E-3],"categories":[],"categories_nodes":[],"categories_segments":[],"categories_sizes":[],"default_left":[0,0,0,0,0,0,0,0,0,0,0,0,0],"id":82,"left_children":[1,3,5,7,-1,9,11,-1,-1,-1,-1,-1,-1],"loss_changes":[3.6819897E0,1.1080432E0,3.0954485E0,3.312111E-1,0E0,1.6256804E0,3.6098652E0,0E0,0E0,0E0,0E0,0E0,0E0],"parents":[2147483647,0,0,1,1,2,2,3,3,5,5,6,6],"right_children":[2,4,6,8,-1,10,12,-1,-1,-1,-1,-1,-1],"split_conditions":[-6.336797E0,7.001239E1,4.2781975E1,1.3348833E0,6.1803465E-3,3.5547047E1,3.6862513E-1,-4.358314E-2,-1.4101635E-2,-2.9785875E-2,6.890426E-3,1.8963095E-2,-7.1221255E-3],"split_indices":[4,12,12,7,0,8,7,0,0,0,0,0,0],"split_type":[0,0,0,0,0,0,0,0,0,0,0,0,0],"sum_hessian":[7.614614E1,1.0417691E1,6.572845E1,9.013212E0,1.4044784E0,1.423387E1,5.1494576E1,6.4345326E0,2.5786798E0,1.0588302E1,3.6455674E0,2.3758598E1,2.773598E1],"tree_param":{"num_deleted":"0","num_feature":"17","num_nodes":"13","size_leaf_vector":"1"}},{"base_weights":[-1.033634E-1,-4.978475E-2,7.030208E-2],"categories":[],"categories_nodes":[],"categories_segments":[],"categories_sizes":[],"default_left":[0,0,0],"id":83,"left_children":[1,-1,-1],"loss_changes":[1.05251625E2,0E0,0E0],"parents":[2147483647,0,0],"right_children":[2,-1,-1],"split_conditions":[3.6933124E0,-4.978475E-2,7.030208E-2],"split_indices":[2,0,0],"split_type":[0,0,0],"sum_hessian":[7.610478E1,4.8043007E1,2.8061775E1],"tree_param":{"num_deleted":"0","num_feature":"17","num_nodes":"3","size_leaf_vector":"1"}},{"base_weights":[-1.11672595E-1,-4.9684703E-2,6.779192E-2],"categories":[],"categories_nodes":[],"categories_segments":[],"categories_sizes":[],"default_left":[0,0,0],"id":84,"left_children":[1,-1,-1],"loss_changes":[9.579598E1,0E0,0E0],"parents":[2147483647,0,0],"right_children":[2,-1,-1],"split_conditions":[3.6933124E0,-4.9684703E-2,6.779192E-2],"split_indices":[2,0,0],"split_type":[0,0,0],"sum_hessian":[7.1968506E1,4.5152977E1,2.6815527E1],"tree_param":{"num_deleted":"0","num_feature":"17","num_nodes":"3","size_leaf_vector":"1"}},{"base_weights":[-7.837901E-2,-4.961958E-2,6.8029374E-2],"categories":[],"categories_nodes":[],"categories_segments":[],"categories_sizes":[],"default_left":[0,0,0],"id":85,"left_children":[1,-1,-1],"loss_changes":[9.61304E1,0E0,0E0],"parents":[2147483647,0,0],"right_children":[2,-1,-1],"split_conditions":[3.6933124E0,-4.961958E-2,6.8029374E-2],"split_indices":[2,0,0],"split_type":[0,0,0],"sum_hessian":[7.106338E1,4.3648663E1,2.7414713E1],"tree_param":{"num_deleted":"0","num_feature":"17","num_nodes":"3","size_leaf_vector":"1"}},{"base_weights":[-6.0582925E-2,-7.399213E-1,1.01057954E-1,-4.4784974E-2,-3.315979E-1,-4.3471274E-1,1.6957499E-1,-3.4486193E-2,6.615692E-3,-3.7764408E-2,3.1143138E-2,-2.700753E-2,1.1346088E-2],"categories":[],"categories_nodes":[],"categories_segments":[],"categories_sizes":[],"default_left":[0,0,0,0,0,0,0,0,0,0,0,0,0],"id":86,"left_children":[1,3,5,-1,7,9,11,-1,-1,-1,-1,-1,-1],"loss_changes":[7.6896486E0,5.584488E-1,2.1623967E0,0E0,9.720959E-1,2.7527914E0,2.2050393E0,0E0,0E0,0E0,0E0,0E0,0E0],"parents":[2147483647,0,0,1,1,2,2,4,4,5,5,6,6],"right_children":[2,4,6,-1,8,10,12,-1,-1,-1,-1,-1,-1],"split_conditions":[4.22538E7,3.4186E7,1.1881871E0,-4.4784974E-2,4.0121984E0,2.248052E8,-1.4186023E2,-3.4486193E-2,6.615692E-3,-3.7764408E-2,3.1143138E-2,-2.700753E-2,1.1346088E-2],"split_indices":[1,1,3,0,3,1,11,0,0,0,0,0,0],"split_type":[0,0,0,0,0,0,0,0,0,0,0,0,0],"sum_hessian":[6.834663E1,1.2448974E1,5.5897655E1,8.147169E0,4.3018055E0,5.731949E0,5.0165707E1,2.1529984E0,2.148807E0,4.6179676E0,1.1139812E0,3.1210048E0,4.70447E1],"tree_param":{"num_deleted":"0","num_feature":"17","num_nodes":"13","size_leaf_vector":"1"}},{"base_weights":[-1.054509E-1,-4.4475146E-2,1.0540705E-2,-8.62706E-2,4.4408E-1,-3.6620665E-2,-1.6947273E-3,2.827037E-2,9.120261E-3],"categories":[],"categories_nodes":[],"categories_segments":[],"categories_sizes":[],"default_left":[0,0,0,0,0,0,0,0,0],"id":87,"left_children":[1,-1,3,5,7,-1,-1,-1,-1],"loss_changes":[6.1246095E0,0E0,2.538332E0,1.6513551E0,2.4723291E-1,0E0,0E0,0E0,0E0],"parents":[2147483647,0,0,2,2,3,3,4,4],"right_children":[2,-1,4,6,8,-1,-1,-1,-1],"split_conditions":[3.4186E7,-4.4475146E-2,5.444269E0,-7.7577868E0,-2.5776594E0,-3.6620665E-2,-1.6947273E-3,2.827037E-2,9.120261E-3],"split_indices":[1,0,3,4,4,0,0,0,0],"split_type":[0,0,0,0,0,0,0,0,0],"sum_hessian":[6.624216E1,7.677431E0,5.8564728E1,4.8528988E1,1.0035737E1,2.6652393E0,4.586375E1,6.063586E0,3.9721508E0],"tree_param":{"num_deleted":"0","num_feature":"17","num_nodes":"9","size_leaf_vector":"1"}},{"base_weights":[-9.1145195E-2,-1.8406059E-1,2.8550854E-1,-4.350764E-1,-8.795452E-2,3.2777417E-2,4.1948566E-1,-2.6161853E-2,1.4830539E-2,1.9821523E-2,-6.434537E-3,1.0449874E-2,-9.842817E-3,3.8314033E-3,2.3829978E-2],"categories":[],"categories_nodes":[],"categories_segments":[],"categories_sizes":[],"default_left":[0,0,0,0,0,0,0,0,0,0,0,0,0,0,0],"id":88,"left_children":[1,3,5,7,9,11,13,-1,-1,-1,-1,-1,-1,-1,-1],"loss_changes":[2.4054184E0,1.2773556E0,4.4997108E-1,1.1128297E0,8.539102E-1,2.7704036E-1,1.3708568E-1,0E0,0E0,0E0,0E0,0E0,0E0,0E0,0E0],"parents":[2147483647,0,0,1,1,2,2,3,3,4,4,5,5,6,6],"right_children":[2,4,6,8,10,12,14,-1,-1,-1,-1,-1,-1,-1,-1],"split_conditions":[1.5081845E2,6.991947E9,9.337975E9,1.4070172E2,7.395343E9,5.911447E0,7.900785E1,-2.6161853E-2,1.4830539E-2,1.9821523E-2,-6.434537E-3,1.0449874E-2,-9.842817E-3,3.8314033E-3,2.3829978E-2],"split_indices":[11,5,5,11,5,15,10,0,0,0,0,0,0,0,0],"split_type":[0,0,0,0,0,0,0,0,0,0,0,0,0,0,0],"sum_hessian":[6.6230675E1,5.353551E1,1.2695163E1,1.384562E1,3.968989E1,4.829521E0,7.865641E0,1.2611014E1,1.234606E0,2.401582E0,3.728831E1,2.7834094E0,2.0461118E0,1.4575524E0,6.4080887E0],"tree_param":{"num_deleted":"0","num_feature":"17","num_nodes":"15","size_leaf_vector":"1"}},{"base_weights":[-4.22338E-2,-4.9891126E-1,1.8220965E-2,-3.4957673E-2,1.0014756E-2,-3.8691816E-1,1.1204672E-1,-6.325766E-3,-2.6621087E-2,1.3752892E-2,-8.2216775E-3],"categories":[],"categories_nodes":[],"categories_segments":[],"categories_sizes":[],"default_left":[0,0,0,0,0,0,0,0,0,0,0],"id":89,"left_children":[1,3,5,-1,-1,7,9,-1,-1,-1,-1],"loss_changes":[1.9048963E0,1.2689116E0,2.3851163E0,0E0,0E0,3.8007164E-1,2.3345842E0,0E0,0E0,0E0,0E0],"parents":[2147483647,0,0,1,1,2,2,5,5,6,6],"right_children":[2,4,6,-1,-1,8,10,-1,-1,-1,-1],"split_conditions":[1.1881871E0,1.9238928E2,4.21638E1,-3.4957673E-2,1.0014756E-2,-3.4504416E0,1.454239E0,-6.325766E-3,-2.6621087E-2,1.3752892E-2,-8.2216775E-3],"split_indices":[3,11,12,0,0,7,7,0,0,0,0],"split_type":[0,0,0,0,0,0,0,0,0,0,0],"sum_hessian":[6.766789E1,7.062777E0,6.0605114E1,5.490466E0,1.5723109E0,1.0808833E1,4.979628E1,4.544748E0,6.264085E0,3.132965E1,1.8466629E1],"tree_param":{"num_deleted":"0","num_feature":"17","num_nodes":"11","size_leaf_vector":"1"}},{"base_weights":[-7.494159E-2,-4.9500167E-2,6.591498E-2],"categories":[],"categories_nodes":[],"categories_segments":[],"categories_sizes":[],"default_left":[0,0,0],"id":90,"left_children":[1,-1,-1],"loss_changes":[8.810648E1,0E0,0E0],"parents":[2147483647,0,0],"right_children":[2,-1,-1],"split_conditions":[3.6933124E0,-4.9500167E-2,6.591498E-2],"split_indices":[2,0,0],"split_type":[0,0,0],"sum_hessian":[6.708475E1,4.0665577E1,2.6419168E1],"tree_param":{"num_deleted":"0","num_feature":"17","num_nodes":"3","size_leaf_vector":"1"}},{"base_weights":[-1.2256284E-1,-4.941398E-2,6.414021E-2],"categories":[],"categories_nodes":[],"categories_segments":[],"categories_sizes":[],"default_left":[0,0,0],"id":91,"left_children":[1,-1,-1],"loss_changes":[7.821871E1,0E0,0E0],"parents":[2147483647,0,0],"right_children":[2,-1,-1],"split_conditions":[3.6933124E0,-4.941398E-2,6.414021E-2],"split_indices":[2,0,0],"split_type":[0,0,0],"sum_hessian":[6.2248234E1,3.870342E1,2.3544817E1],"tree_param":{"num_deleted":"0","num_feature":"17","num_nodes":"3","size_leaf_vector":"1"}},{"base_weights":[-9.528077E-2,-3.460143E-1,-5.8966447E-3,-4.261694E-2,-4.8152182E-1,-8.4336385E-2,2.2459118E-1,-1.717064E-2,8.01755E-3,-2.7423298E-2,-3.341511E-3,1.0517745E-2,-1.1586527E-2,1.9273493E-2,-1.473635E-2],"categories":[],"categories_nodes":[],"categories_segments":[],"categories_sizes":[],"default_left":[0,0,0,0,0,0,0,0,0,0,0,0,0,0,0],"id":92,"left_children":[1,3,5,7,9,11,13,-1,-1,-1,-1,-1,-1,-1,-1],"loss_changes":[1.3553064E0,6.3313794E-1,8.445419E-1,4.217338E-1,2.6575947E-1,1.5601978E0,1.1051347E0,0E0,0E0,0E0,0E0,0E0,0E0,0E0,0E0],"parents":[2147483647,0,0,1,1,2,2,3,3,4,4,5,5,6,6],"right_children":[2,4,6,8,10,12,14,-1,-1,-1,-1,-1,-1,-1,-1],"split_conditions":[6.7432284E9,-1.0348591E0,3.2523926E1,-2.6551137E0,2.4141662E-1,1.7354446E1,1.3839282E-1,-1.717064E-2,8.01755E-3,-2.7423298E-2,-3.341511E-3,1.0517745E-2,-1.1586527E-2,1.9273493E-2,-1.473635E-2],"split_indices":[5,7,8,7,6,8,6,0,0,0,0,0,0,0,0],"split_type":[0,0,0,0,0,0,0,0,0,0,0,0,0,0,0],"sum_hessian":[5.9564484E1,1.4899224E1,4.466526E1,5.005827E0,9.893397E0,3.3797405E1,1.0867855E1,1.7380717E0,3.267755E0,8.240532E0,1.6528656E0,1.1125857E1,2.2671549E1,8.494192E0,2.3736625E0],"tree_param":{"num_deleted":"0","num_feature":"17","num_nodes":"15","size_leaf_vector":"1"}},{"base_weights":[-1.20896064E-1,-3.620558E-1,-5.4742354E-3,-1.0472321E-1,-5.930966E-1,1.9093102E-1,-1.8049225E-1,-2.2207199E-2,1.5909519E-2,-3.222917E-2,-1.298728E-2,1.1959343E-2,-8.088733E-3,-2.2891175E-2,9.517925E-3],"categories":[],"categories_nodes":[],"categories_segments":[],"categories_sizes":[],"default_left":[0,0,0,0,0,0,0,0,0,0,0,0,0,0,0],"id":93,"left_children":[1,3,5,7,9,11,13,-1,-1,-1,-1,-1,-1,-1,-1],"loss_changes":[1.6368072E0,1.0700104E0,1.4380759E0,1.6087607E0,1.098156E-3,3.7444764E-1,2.3607407E0,0E0,0E0,0E0,0E0,0E0,0E0,0E0,0E0],"parents":[2147483647,0,0,1,1,2,2,3,3,4,4,5,5,6,6],"right_children":[2,4,6,8,10,12,14,-1,-1,-1,-1,-1,-1,-1,-1],"split_conditions":[2.7348576E0,6.048029E1,1.2441783E2,1.2342978E0,2.431243E0,5.1188927E0,5.384171E0,-2.2207199E-2,1.5909519E-2,-3.222917E-2,-1.298728E-2,1.1959343E-2,-8.088733E-3,-2.2891175E-2,9.517925E-3],"split_indices":[3,10,10,3,3,3,3,0,0,0,0,0,0,0,0],"split_type":[0,0,0,0,0,0,0,0,0,0,0,0,0,0,0],"sum_hessian":[5.787492E1,1.804186E1,3.983306E1,9.222799E0,8.819061E0,1.8726856E1,2.1106203E1,5.0886025E0,4.1341963E0,6.830438E0,1.9886234E0,1.675619E1,1.9706665E0,1.1941521E1,9.164683E0],"tree_param":{"num_deleted":"0","num_feature":"17","num_nodes":"15","size_leaf_vector":"1"}},{"base_weights":[-7.871856E-2,-4.3589715E-2,3.3341754E-2,-9.096981E-2,2.2128242E-1,4.206892E-3,-1.5183272E-2,-5.1002605E-3,1.4318073E-2],"categories":[],"categories_nodes":[],"categories_segments":[],"categories_sizes":[],"default_left":[0,0,0,0,0,0,0,0,0],"id":94,"left_children":[1,-1,3,5,7,-1,-1,-1,-1],"loss_changes":[5.431965E0,0E0,1.2871282E0,1.267633E0,4.8957407E-1,0E0,0E0,0E0,0E0],"parents":[2147483647,0,0,2,2,3,3,4,4],"right_children":[2,-1,4,6,8,-1,-1,-1,-1],"split_conditions":[3.4186E7,-4.3589715E-2,9.7882E7,5.184781E-2,5.6040043E1,4.206892E-3,-1.5183272E-2,-5.1002605E-3,1.4318073E-2],"split_indices":[1,0,1,7,9,0,0,0,0],"split_type":[0,0,0,0,0,0,0,0,0],"sum_hessian":[5.9793938E1,6.5634265E0,5.323051E1,3.2349323E1,2.0881187E1,1.80739E1,1.4275425E1,3.4040027E0,1.7477184E1],"tree_param":{"num_deleted":"0","num_feature":"17","num_nodes":"9","size_leaf_vector":"1"}},{"base_weights":[-7.748969E-2,-4.924998E-2,6.345321E-2],"categories":[],"categories_nodes":[],"categories_segments":[],"categories_sizes":[],"default_left":[0,0,0],"id":95,"left_children":[1,-1,-1],"loss_changes":[7.416672E1,0E0,0E0],"parents":[2147483647,0,0],"right_children":[2,-1,-1],"split_conditions":[3.6933124E0,-4.924998E-2,6.345321E-2],"split_indices":[2,0,0],"split_type":[0,0,0],"sum_hessian":[5.866942E1,3.5208893E1,2.3460527E1],"tree_param":{"num_deleted":"0","num_feature":"17","num_nodes":"3","size_leaf_vector":"1"}},{"base_weights":[-1.1845938E-1,-1.9586253E-1,2.5544277E-1,-4.466042E-1,-1.1375131E-1,-6.151647E-3,3.2394955E-1,-1.2219538E-2,-3.7877716E-2,1.6662505E-2,-1.210511E-2,2.0590061E-2,-5.4117637E-3],"categories":[],"categories_nodes":[],"categories_segments":[],"categories_sizes":[],"default_left":[0,0,0,0,0,0,0,0,0,0,0,0,0],"id":96,"left_children":[1,3,5,7,9,-1,11,-1,-1,-1,-1,-1,-1],"loss_changes":[1.6788273E0,9.208411E-1,3.0137974E-1,5.2540183E-1,2.1973298E0,0E0,3.7929142E-1,0E0,0E0,0E0,0E0,0E0,0E0],"parents":[2147483647,0,0,1,1,2,2,3,3,4,4,6,6],"right_children":[2,4,6,8,10,-1,12,-1,-1,-1,-1,-1,-1],"split_conditions":[1.6072426E2,4.2781975E1,6.1946552E1,1.24598335E2,-4.8330887E1,-6.151647E-3,7.4933975E1,-1.2219538E-2,-3.7877716E-2,1.6662505E-2,-1.210511E-2,2.0590061E-2,-5.4117637E-3],"split_indices":[11,12,12,9,11,0,12,0,0,0,0,0,0],"split_type":[0,0,0,0,0,0,0,0,0,0,0,0,0],"sum_hessian":[5.5279472E1,4.6193016E1,9.086456E0,1.0300262E1,3.5892754E1,1.2706492E0,7.8158073E0,7.323608E0,2.9766548E0,7.6509094E0,2.8241846E1,6.534651E0,1.2811564E0],"tree_param":{"num_deleted":"0","num_feature":"17","num_nodes":"13","size_leaf_vector":"1"}},{"base_weights":[-5.920629E-2,-4.9160518E-2,6.27019E-2],"categories":[],"categories_nodes":[],"categories_segments":[],"categories_sizes":[],"default_left":[0,0,0],"id":97,"left_children":[1,-1,-1],"loss_changes":[7.1869774E1,0E0,0E0],"parents":[2147483647,0,0],"right_children":[2,-1,-1],"split_conditions":[3.6933124E0,-4.9160518E-2,6.27019E-2],"split_indices":[2,0,0],"split_type":[0,0,0],"sum_hessian":[5.721187E1,3.3730362E1,2.3481506E1],"tree_param":{"num_deleted":"0","num_feature":"17","num_nodes":"3","size_leaf_vector":"1"}},{"base_weights":[-7.08045E-2,-3.8686785E-1,2.9618783E-2,-4.4685948E-1,-5.1267784E-2,3.02412E-1,-6.932306E-2,-1.6956747E-4,-2.5296811E-2,-1.7513698E-2,1.3590604E-2,1.9562421E-2,-7.5338306E-3,-1.5067475E-2,1.0426321E-2],"categories":[],"categories_nodes":[],"categories_segments":[],"categories_sizes":[],"default_left":[0,0,0,0,0,0,0,0,0,0,0,0,0,0,0],"id":98,"left_children":[1,3,5,7,9,11,13,-1,-1,-1,-1,-1,-1,-1,-1],"loss_changes":[1.731554E0,2.416035E-1,1.156055E0,2.868929E-1,3.9680326E-1,5.1700246E-1,2.1048775E0,0E0,0E0,0E0,0E0,0E0,0E0,0E0,0E0],"parents":[2147483647,0,0,1,1,2,2,3,3,4,4,5,5,6,6],"right_children":[2,4,6,8,10,12,14,-1,-1,-1,-1,-1,-1,-1,-1],"split_conditions":[4.4494442E1,1.912336E10,0E0,2.4766364E9,-8.288783E1,9.198583E3,1.2948843E2,-1.6956747E-4,-2.5296811E-2,-1.7513698E-2,1.3590604E-2,1.9562421E-2,-7.5338306E-3,-1.5067475E-2,1.0426321E-2],"split_indices":[12,5,11,5,11,16,11,0,0,0,0,0,0,0,0],"split_type":[0,0,0,0,0,0,0,0,0,0,0,0,0,0,0],"sum_hessian":[5.31931E1,1.2138161E1,4.1054943E1,1.0016156E1,2.1220045E0,1.0379924E1,3.0675018E1,1.3017541E0,8.714401E0,1.0583471E0,1.0636574E0,8.792481E0,1.5874426E0,1.6669817E1,1.4005201E1],"tree_param":{"num_deleted":"0","num_feature":"17","num_nodes":"15","size_leaf_vector":"1"}},{"base_weights":[-7.058179E-2,3.4555472E-2,-1.7568506E-1,-2.9222962E-2,2.7574342E-1,-3.011816E-1,8.415622E-4,1.9627202E-3,-1.8934218E-2,-4.233306E-3,2.3107564E-2,-2.2431029E-2,-5.536999E-3,-1.814617E-2,6.835326E-3],"categories":[],"categories_nodes":[],"categories_segments":[],"categories_sizes":[],"default_left":[0,0,0,0,0,0,0,0,0,0,0,0,0,0,0],"id":99,"left_children":[1,3,5,7,9,11,13,-1,-1,-1,-1,-1,-1,-1,-1],"loss_changes":[6.04458E-1,4.3733904E-1,6.038121E-1,5.6465805E-1,4.376641E-1,3.9751554E-1,6.583955E-1,0E0,0E0,0E0,0E0,0E0,0E0,0E0,0E0],"parents":[2147483647,0,0,1,1,2,2,3,3,4,4,5,5,6,6],"right_children":[2,4,6,8,10,12,14,-1,-1,-1,-1,-1,-1,-1,-1],"split_conditions":[1.07757404E-1,9.273814E-2,1.3691407E-1,3.2085378E-2,-9.4931537E-1,2.145448E0,8.30255E1,1.9627202E-3,-1.8934218E-2,-4.233306E-3,2.3107564E-2,-2.2431029E-2,-5.536999E-3,-1.814617E-2,6.835326E-3],"split_indices":[7,6,6,6,7,14,0,0,0,0,0,0,0,0,0],"split_type":[0,0,0,0,0,0,0,0,0,0,0,0,0,0,0],"sum_hessian":[5.3151352E1,2.6906939E1,2.6244413E1,2.1974863E1,4.9320755E0,1.4926613E1,1.13178005E1,1.9116611E1,2.8582504E0,1.8673862E0,3.0646894E0,7.649061E0,7.277551E0,2.6232095E0,8.6945915E0],"tree_param":{"num_deleted":"0","num_feature":"17","num_nodes":"15","size_leaf_vector":"1"}}]},"name":"gbtree"},"learner_model_param":{"base_score":"1.3304614E-1","boost_from_average":"1","num_class":"0","num_feature":"17","num_target":"1"},"objective":{"name":"binary:logistic","reg_loss_param":{"scale_pos_weight":"1"}}},"version":[2,0,3]}